%YAML:1.0
---
opencv_ml_svm:
   format: 3
   svmType: C_SVC
   kernel:
      type: RBF
      gamma: 0.5
   C: 4.
   term_criteria: { epsilon:9.9999999999999995e-07, iterations:10000 }
   var_count: 44
   class_count: 3
   class_labels: !!opencv-matrix
      rows: 3
      cols: 1
      dt: i
      data: [ 0, 1, 2 ]
   sv_total: 205
   support_vectors:
      - [ 0.117974281, 0.0587075166, 0.213336572, 0.196355909,
          0.628882408, 0.0803247541, 0.625734448, 0.0653690547,
          0.497249871, 0.0211368389, 0.554749191, 0.0492452607,
          0.001953125, 0.415256083, 0.307725698, 0.205186635,
          0.009765625, 0.00987413153, 0.0137803815, 0.026909722,
          0.00824652798, 0.000217013891, 0.000325520843, 0.000108506945,
          0., 0.000217013891, 0.000217013891, 0.000217013891, 0.39453125,
          0.176106766, 0.0148654515, 0.013020833, 0.012152778,
          0.0526258685, 0.176974833, 0.104926214, 0.029947916,
          0.0069444445, 0.00227864576, 0.001844618, 0.0078125,
          0.005967882, 0., 0. ]
      - [ 0.114961617, 0.0552042685, 0.219419345, 0.203720644,
          0.611151934, 0.0776921809, 0.608618021, 0.0671806782,
          0.49794817, 0.0205536392, 0.555083215, 0.049230624,
          0.000868055562, 0.401041657, 0.428927958, 0.105143227,
          0.00954861101, 0.00716145849, 0.013020833, 0.0285373256,
          0.0049913195, 0.000434027781, 0.000217013891, 0., 0.,
          0.000108506945, 0., 0., 0.365885407, 0.208658859, 0.0150824655,
          0.0100911455, 0.00911458302, 0.0313585065, 0.150933161,
          0.131293401, 0.0463324636, 0.0118272565, 0.00336371525,
          0.00249565975, 0.00900607649, 0.00455729151, 0., 0. ]
      - [ 0.113505498, 0.054197371, 0.220110804, 0.203318119,
          0.609472871, 0.0795066506, 0.606698096, 0.0700405613,
          0.498138368, 0.0208276901, 0.554803669, 0.0486100167,
          0.000868055562, 0.416232646, 0.396375865, 0.123589411,
          0.0103081595, 0.00716145849, 0.012369792, 0.0287543405,
          0.00434027798, 0., 0., 0., 0., 0., 0., 0., 0.377495646,
          0.198025167, 0.013237847, 0.010199653, 0.0109592015,
          0.0329861119, 0.148003474, 0.129231766, 0.0483940989,
          0.0118272565, 0.0029296875, 0.00238715275, 0.007703993,
          0.00661892351, 0., 0. ]
      - [ 0.11364124, 0.0567195565, 0.217975557, 0.202315569,
          0.616064966, 0.0797154382, 0.612790644, 0.0715271384,
          0.498184323, 0.0211279467, 0.554246664, 0.0484675951,
          0.000868055562, 0.437174469, 0.346896708, 0.148220479,
          0.0116102435, 0.00889756903, 0.012152778, 0.0278862845,
          0.0049913195, 0.000542534748, 0.000325520843, 0., 0.,
          0.000217013891, 0., 0.000217013891, 0.411892354, 0.162868917,
          0.013237847, 0.01171875, 0.0105251735, 0.0392795131,
          0.153320312, 0.122938365, 0.0444878489, 0.0107421875,
          0.00260416674, 0.001953125, 0.00737847202, 0.00705295149, 0.,
          0. ]
      - [ 0.100604236, 0.054507751, 0.194466993, 0.192113683,
          0.601011038, 0.0751141757, 0.600067675, 0.0651398227,
          0.501247644, 0.017516138, 0.547684789, 0.0463084541,
          0.011501736, 0.525716126, 0.36328125, 0.0504557304,
          0.005750868, 0.00455729151, 0.00954861101, 0.0200737845,
          0.00705295149, 0.000759548624, 0.000434027781, 0., 0.,
          0.000108506945, 0.000325520843, 0.000434027781, 0.524197042,
          0.0967881978, 0.012586806, 0.00998263899, 0.013888889,
          0.0397135429, 0.145941839, 0.104600698, 0.0330946185,
          0.00705295149, 0.002061632, 0.00151909725, 0.00368923601,
          0.0048828125, 0., 0. ]
      - [ 0.100594871, 0.0555092171, 0.21857214, 0.20203723, 0.592951715,
          0.0819986463, 0.587483406, 0.0705342442, 0.502221644,
          0.0190471746, 0.552297771, 0.0484131537, 0.0348307304,
          0.536024332, 0.286349833, 0.0887586772, 0.0069444445,
          0.00618489599, 0.011501736, 0.019965278, 0.00889756903,
          0.000217013891, 0., 0., 0., 0., 0.000108506945, 0.000217013891,
          0.424696177, 0.147677958, 0.0159505215, 0.0103081595,
          0.0146484375, 0.0339626744, 0.139214411, 0.132052958,
          0.0491536446, 0.0157335065, 0.00455729151, 0.00260416674,
          0.00444878452, 0.0049913195, 0., 0. ]
      - [ 0.100425944, 0.120062642, 0.231558919, 0.208884269,
          0.613619566, 0.118536301, 0.595186949, 0.110033438,
          0.505108774, 0.0366676152, 0.536262155, 0.0401002839,
          0.155381948, 0.694335938, 0.0078125, 0.00249565975,
          0.00227864576, 0.00173611112, 0.00509982649, 0.0633680522,
          0.0324435756, 0.00846354198, 0.00965711847, 0.00162760413,
          0.00314670149, 0.0048828125, 0.00423177099, 0.0030381945,
          0.109917536, 0.382378459, 0.0923394114, 0.0400390625,
          0.0464409739, 0.076171875, 0.117838539, 0.05078125,
          0.026041666, 0.0120442705, 0.00358072924, 0.00227864576,
          0.001953125, 0.00748697901, 0.0256076381, 0.00509982649 ]
      - [ 0.105760656, 0.141872168, 0.226342082, 0.204017863,
          0.619206607, 0.115954228, 0.599102139, 0.106507741,
          0.507150829, 0.0364924297, 0.535023928, 0.0399272963,
          0.271918416, 0.571180582, 0.00564236101, 0.00217013899,
          0.00162760413, 0.00141059025, 0.00271267351, 0.0547960065,
          0.037109375, 0.00509982649, 0.00922309048, 0.001953125,
          0.004014757, 0.00661892351, 0.012586806, 0.011935764,
          0.125217021, 0.381184906, 0.0828993022, 0.0407986119,
          0.045789931, 0.0828993022, 0.112304688, 0.0494791679,
          0.0241970494, 0.010850694, 0.00314670149, 0.00249565975,
          0.00368923601, 0.0170355905, 0.0133463545, 0.00466579851 ]
      - [ 0.111226849, 0.150782406, 0.216013074, 0.193043366, 0.62887603,
          0.106897905, 0.608577132, 0.0921035036, 0.508644402,
          0.0329084955, 0.537393212, 0.0425622538, 0.245659724,
          0.592664957, 0.00466579851, 0.002061632, 0.00217013899,
          0.00173611112, 0.003797743, 0.0416666679, 0.0353732631,
          0.00651041651, 0.0124782985, 0.00553385401, 0.00965711847,
          0.00911458302, 0.0148654515, 0.0120442705, 0.164713547,
          0.340711802, 0.091796875, 0.0452473946, 0.0571831614,
          0.0796440989, 0.0984157994, 0.0610894114, 0.0211588535,
          0.00520833349, 0.00271267351, 0.00260416674, 0.0028211805,
          0.00759548601, 0.0177951381, 0.00130208337 ]
      - [ 0.109868176, 0.149656519, 0.207984835, 0.191851795,
          0.630293846, 0.104799531, 0.611747682, 0.0893328041,
          0.508224428, 0.0322770029, 0.536245584, 0.0422563665,
          0.243164062, 0.597873271, 0.0049913195, 0.00238715275,
          0.001844618, 0.001844618, 0.003797743, 0.0367838554,
          0.0380859375, 0.0048828125, 0.0142144095, 0.0067274305,
          0.007703993, 0.010416667, 0.0126953125, 0.012586806,
          0.181315109, 0.355143219, 0.0799696147, 0.0431857631,
          0.0553385429, 0.0718315989, 0.0984157994, 0.0584852435,
          0.0179036465, 0.0049913195, 0.0030381945, 0.001844618,
          0.00249565975, 0.00748697901, 0.0173611119, 0.00119357638 ]
      - [ 0.108223125, 0.148161978, 0.20443815, 0.190097541, 0.640676498,
          0.100182727, 0.622031987, 0.084233582, 0.508262694,
          0.0317166746, 0.536625564, 0.0427351929, 0.247938365,
          0.600911438, 0.003797743, 0.0010850695, 0.00227864576,
          0.00162760413, 0.00347222225, 0.0390625, 0.0322265625,
          0.00564236101, 0.015625, 0.00347222225, 0.005750868,
          0.00998263899, 0.0142144095, 0.0129123265, 0.172309026,
          0.383029521, 0.0744357631, 0.0402560756, 0.0547960065,
          0.0642361119, 0.0974392369, 0.0597873256, 0.0173611119,
          0.00520833349, 0.00238715275, 0.00238715275, 0.00173611112,
          0.005859375, 0.0177951381, 0.0009765625 ]
      - [ 0.109256282, 0.148999751, 0.210102215, 0.194552556,
          0.641262412, 0.102360539, 0.621440113, 0.0863273144,
          0.508383572, 0.0323431641, 0.537482977, 0.0438182168,
          0.238498271, 0.606770813, 0.00531684048, 0.00151909725,
          0.00130208337, 0.002061632, 0.00423177099, 0.03515625,
          0.0386284739, 0.0049913195, 0.0116102435, 0.00629340298,
          0.00802951399, 0.00792100653, 0.0126953125, 0.014973958,
          0.163845479, 0.374131948, 0.0763888881, 0.0414496511,
          0.0529513881, 0.0716145858, 0.0979817733, 0.0623914935,
          0.0198567715, 0.00607638899, 0.00260416674, 0.001844618,
          0.00227864576, 0.005967882, 0.0197482631, 0.000868055562 ]
      - [ 0.111531526, 0.152536124, 0.212671906, 0.194394812,
          0.640448809, 0.103355974, 0.61986655, 0.0871521235,
          0.508629501, 0.0325746723, 0.537784696, 0.0439022221,
          0.246853292, 0.594075501, 0.00336371525, 0.00151909725,
          0.001844618, 0.00227864576, 0.00358072924, 0.0391710065,
          0.037977431, 0.0048828125, 0.011935764, 0.00520833349,
          0.0078125, 0.00900607649, 0.0148654515, 0.015625, 0.169921875,
          0.353841156, 0.0804036483, 0.0405815989, 0.0587022565,
          0.0718315989, 0.100368924, 0.0665147603, 0.018446181,
          0.00607638899, 0.0030381945, 0.00217013899, 0.002061632,
          0.00629340298, 0.0185546875, 0.00119357638 ]
      - [ 0.116914317, 0.164099082, 0.208507791, 0.194995493,
          0.637342989, 0.102158599, 0.617138565, 0.0852705687,
          0.509358406, 0.0320038907, 0.536655784, 0.0442830212,
          0.305555552, 0.526692688, 0.00314670149, 0.00141059025,
          0.00141059025, 0.00130208337, 0.00271267351, 0.0356987864,
          0.0372178815, 0.003797743, 0.0131293405, 0.00802951399,
          0.00944010448, 0.013020833, 0.018446181, 0.0189887155,
          0.189236104, 0.358398438, 0.0728081614, 0.038194444,
          0.0494791679, 0.068359375, 0.0986328125, 0.0675998256,
          0.0194227435, 0.00520833349, 0.0029296875, 0.002061632,
          0.00173611112, 0.00509982649, 0.019965278, 0.000868055562 ]
      - [ 0.112845942, 0.158408731, 0.208001852, 0.195996851,
          0.628151834, 0.103355072, 0.608811617, 0.085856609,
          0.509392023, 0.0315223001, 0.536390245, 0.044135496,
          0.302191854, 0.536458313, 0.00336371525, 0.000868055562,
          0.00141059025, 0.0010850695, 0.00271267351, 0.034071181,
          0.037109375, 0.005967882, 0.0159505215, 0.00651041651,
          0.00792100653, 0.013020833, 0.016276041, 0.0150824655,
          0.192599833, 0.360894084, 0.0732421875, 0.0372178815,
          0.047743056, 0.0646701381, 0.0934244767, 0.0691189244,
          0.022786459, 0.00607638899, 0.00217013899, 0.00238715275,
          0.002061632, 0.00368923601, 0.020182291, 0.00173611112 ]
      - [ 0.0850366801, 0.0894310176, 0.159029052, 0.119046129,
          0.651038706, 0.0972441286, 0.639312267, 0.0836210176,
          0.509382665, 0.0218463521, 0.533366978, 0.0262353607,
          0.138563365, 0.690104187, 0.0846354142, 0.00868055597,
          0.00640190952, 0.00238715275, 0.00238715275, 0.0364583321,
          0.0116102435, 0.00325520826, 0.00640190952, 0.0029296875,
          0.000651041686, 0.000542534748, 0.00325520826, 0.00173611112,
          0.246961802, 0.243164062, 0.0850694478, 0.20323351,
          0.122721352, 0.0631510392, 0.015625, 0.00629340298,
          0.004014757, 0.00347222225, 0.005859375, 0.000434027781, 0.,
          0., 0., 0. ]
      - [ 0.0833592862, 0.0814430416, 0.159851149, 0.115844555,
          0.651928842, 0.0976549163, 0.640394807, 0.0840383321,
          0.509223104, 0.0207396019, 0.533943951, 0.0261417981,
          0.107855901, 0.740559876, 0.0756293386, 0.00347222225,
          0.00531684048, 0.003797743, 0.00314670149, 0.0343967006,
          0.00900607649, 0.00390625, 0.00748697901, 0.00238715275,
          0.000868055562, 0.000651041686, 0.0009765625, 0.000542534748,
          0.247504339, 0.234809026, 0.0902777761, 0.218207464,
          0.115017362, 0.0589192696, 0.0168185756, 0.00640190952,
          0.00358072924, 0.0047743055, 0.00368923601, 0., 0., 0., 0., 0. ]
      - [ 0.0854056031, 0.0874832124, 0.156561911, 0.113736719,
          0.653242469, 0.0974591672, 0.642761528, 0.0831680298,
          0.508678019, 0.0205905177, 0.533851624, 0.0255856942,
          0.0842013881, 0.750542521, 0.0897352397, 0.00651041651,
          0.00347222225, 0.00260416674, 0.00705295149, 0.0300564244,
          0.00434027798, 0.00434027798, 0.00661892351, 0.00119357638,
          0.00141059025, 0.00227864576, 0.003797743, 0.001844618,
          0.262369782, 0.229058161, 0.0952690989, 0.207248271,
          0.119140625, 0.0583767369, 0.011067708, 0.00434027798,
          0.005967882, 0.00640190952, 0.000759548624, 0., 0., 0., 0., 0. ]
      - [ 0.0830078125, 0.0798772275, 0.16087155, 0.112022601,
          0.653457761, 0.0977012664, 0.64177686, 0.0842264816,
          0.509011626, 0.0204718336, 0.534714997, 0.0252856184,
          0.0857204869, 0.75792098, 0.0806206614, 0.004014757,
          0.00542534702, 0.00336371525, 0.00542534702, 0.0388454869,
          0.00911458302, 0.001953125, 0.0009765625, 0.000759548624,
          0.00119357638, 0.000759548624, 0.00358072924, 0.000325520843,
          0.214301214, 0.254123271, 0.102756076, 0.218532979,
          0.122938365, 0.0584852435, 0.00954861101, 0.0069444445,
          0.00640190952, 0.005859375, 0.000108506945, 0., 0., 0., 0., 0. ]
      - [ 0.0840792656, 0.091010347, 0.159292877, 0.113487214,
          0.65590024, 0.0974463522, 0.643222332, 0.0839939788,
          0.509821355, 0.0211428069, 0.533576727, 0.0254396889,
          0.128363714, 0.716796875, 0.0756293386, 0.00358072924,
          0.005750868, 0.00141059025, 0.00434027798, 0.0353732631,
          0.0100911455, 0.00368923601, 0.0028211805, 0.00238715275,
          0.001844618, 0.0010850695, 0.005750868, 0.0010850695,
          0.250868052, 0.217773438, 0.106879339, 0.218532979,
          0.115668401, 0.0609809011, 0.0103081595, 0.00520833349,
          0.00661892351, 0.0068359375, 0.000325520843, 0., 0., 0., 0.,
          0. ]
      - [ 0.0844690427, 0.0850829482, 0.159089476, 0.111464903,
          0.653906703, 0.0975397602, 0.642373443, 0.084181644,
          0.509364784, 0.0196035206, 0.534509897, 0.0254625361,
          0.0974392369, 0.741970479, 0.0823567733, 0.00705295149,
          0.00531684048, 0.00227864576, 0.00651041651, 0.030815972,
          0.00998263899, 0.0049913195, 0.00227864576, 0.00119357638,
          0.00151909725, 0.0009765625, 0.00368923601, 0.00162760413,
          0.235134542, 0.236436635, 0.0980902761, 0.221245661,
          0.122395836, 0.059461806, 0.0120442705, 0.0048828125,
          0.0047743055, 0.00553385401, 0., 0., 0., 0., 0., 0. ]
      - [ 0.0784032866, 0.0717823431, 0.164840341, 0.0947786272,
          0.606372952, 0.104275092, 0.596347332, 0.0964211896,
          0.510725141, 0.0167610347, 0.533275485, 0.0191742107,
          0.104709201, 0.739800334, 0.0773654506, 0.0189887155,
          0.0069444445, 0.00412326399, 0.0047743055, 0.0254991315,
          0.00987413153, 0.00130208337, 0.00238715275, 0.00130208337,
          0.000217013891, 0.000217013891, 0.002061632, 0.000434027781,
          0.140082464, 0.301757812, 0.106879339, 0.215386286,
          0.210069448, 0.0109592015, 0.0078125, 0.00347222225,
          0.0028211805, 0.000759548624, 0., 0., 0., 0., 0., 0. ]
      - [ 0.0763522908, 0.0658517182, 0.161301315, 0.0951260105,
          0.605521083, 0.103505425, 0.596641362, 0.0960799307,
          0.510281324, 0.0165934879, 0.532538474, 0.0190715641,
          0.0986328125, 0.752821207, 0.0817057267, 0.014322917,
          0.00531684048, 0.00358072924, 0.005859375, 0.0231119785,
          0.00726996548, 0.00336371525, 0.002061632, 0.000651041686,
          0.000108506945, 0.000217013891, 0.0009765625, 0., 0.152126729,
          0.305447042, 0.104926214, 0.217990458, 0.194878474,
          0.0118272565, 0.00368923601, 0.00390625, 0.00358072924,
          0.00130208337, 0.000325520843, 0., 0., 0., 0., 0. ]
      - [ 0.0793232545, 0.0679478198, 0.162869349, 0.093690224,
          0.605293453, 0.103598624, 0.596402228, 0.0961902365,
          0.509900093, 0.0172873028, 0.533022702, 0.0183051284,
          0.0733506978, 0.759548604, 0.0845269114, 0.0212673619,
          0.011284722, 0.004014757, 0.00857204851, 0.020399306,
          0.007703993, 0.00531684048, 0.001953125, 0.00119357638,
          0.000217013891, 0.000108506945, 0.000542534748, 0.,
          0.135742188, 0.314127594, 0.114691839, 0.218207464,
          0.192382812, 0.0113932295, 0.00455729151, 0.00336371525,
          0.00358072924, 0.001953125, 0., 0., 0., 0., 0., 0. ]
      - [ 0.120921843, 0.061414998, 0.151019961, 0.162504837,
          0.501882076, 0.094361186, 0.521941364, 0.098881498,
          0.494788259, 0.00629939744, 0.53471458, 0.0337272547,
          0.0179036465, 0.227430552, 0.506293416, 0.149088547,
          0.0333116315, 0.0185546875, 0.016276041, 0.0137803815,
          0.0142144095, 0.000868055562, 0.000542534748, 0.000108506945,
          0.000108506945, 0.000434027781, 0.0010850695, 0., 0.267361104,
          0.432942718, 0.124565974, 0.013888889, 0.00618489599,
          0.00792100653, 0.010850694, 0.0353732631, 0.0694444478,
          0.0278862845, 0.00347222225, 0.000108506945, 0., 0., 0., 0. ]
      - [ 0.113426775, 0.130157188, 0.245044842, 0.2600784, 0.426371008,
          0.0912305489, 0.432878882, 0.106874816, 0.502915621,
          0.00561406044, 0.538344204, 0.0423095934, 0.265407979,
          0.351345479, 0.251410604, 0.00911458302, 0.0030381945,
          0.00227864576, 0.00390625, 0.00347222225, 0.028211806,
          0.033203125, 0.016927084, 0.00651041651, 0.00716145849,
          0.00661892351, 0.00759548601, 0.003797743, 0.202473953,
          0.458333343, 0.00737847202, 0.004014757, 0.00325520826,
          0.00368923601, 0.00466579851, 0.00889756903, 0.0405815989,
          0.119249135, 0.107964411, 0.0349392369, 0.00434027798,
          0.000217013891, 0., 0. ]
      - [ 0.0805640668, 0.114367038, 0.21855469, 0.205377012,
          0.461797476, 0.0882830769, 0.449284285, 0.0779105574,
          0.513277829, 0.0237387549, 0.534952879, 0.0379735492,
          0.404079854, 0.499240458, 0.0155164935, 0.00151909725,
          0.00130208337, 0.00141059025, 0.00227864576, 0.0281032994,
          0.00802951399, 0.0028211805, 0.00542534702, 0.00640190952,
          0.00564236101, 0.00455729151, 0.00716145849, 0.00651041651,
          0.13661024, 0.451605916, 0.0528428815, 0.0146484375,
          0.0139973955, 0.014973958, 0.0746527761, 0.120334201,
          0.0794270858, 0.0212673619, 0.0047743055, 0.00141059025,
          0.0010850695, 0.00130208337, 0.0109592015, 0.000108506945 ]
      - [ 0.0814665854, 0.116500117, 0.222821772, 0.207194299,
          0.455501527, 0.0881904364, 0.442735136, 0.0787334442,
          0.513380826, 0.023299817, 0.535371125, 0.0380807593,
          0.392361104, 0.508572042, 0.0170355905, 0.00130208337,
          0.00151909725, 0.00130208337, 0.00173611112, 0.028428819,
          0.00629340298, 0.00314670149, 0.007703993, 0.00651041651,
          0.00531684048, 0.00434027798, 0.005859375, 0.00857204851,
          0.146484375, 0.434244782, 0.0500217006, 0.0161675345,
          0.013671875, 0.013454861, 0.0754123256, 0.124565974,
          0.0799696147, 0.0246310756, 0.00618489599, 0.001844618,
          0.00162760413, 0.00173611112, 0.00944010448, 0.000542534748 ]
      - [ 0.0800559968, 0.106187187, 0.242047504, 0.214636192,
          0.45207864, 0.092823118, 0.436661303, 0.0853464082,
          0.513841629, 0.0238919575, 0.538285911, 0.0388430767,
          0.397460938, 0.50010848, 0.021050347, 0.002061632, 0.001953125,
          0.00141059025, 0.00314670149, 0.0335286446, 0.00726996548,
          0.00412326399, 0.00651041651, 0.00314670149, 0.00434027798,
          0.0047743055, 0.00412326399, 0.0049913195, 0.15625,
          0.377821177, 0.0501302071, 0.020399306, 0.0150824655,
          0.0211588535, 0.0821397603, 0.123806424, 0.0836588517,
          0.0394965261, 0.0135633685, 0.00314670149, 0.00130208337,
          0.0029296875, 0.00857204851, 0.000542534748 ]
      - [ 0.0848107263, 0.106094398, 0.242599398, 0.212967604,
          0.442138553, 0.0936985984, 0.428162873, 0.0884320885,
          0.5130983, 0.0231525861, 0.538142502, 0.0377827883,
          0.296115458, 0.578884542, 0.0376519114, 0.00542534702,
          0.00260416674, 0.0030381945, 0.00325520826, 0.03125,
          0.00933159702, 0.00531684048, 0.00607638899, 0.0028211805,
          0.00423177099, 0.004014757, 0.00553385401, 0.00444878452,
          0.175021708, 0.345160604, 0.0622829869, 0.0198567715,
          0.0142144095, 0.020182291, 0.0848524272, 0.126193583,
          0.0872395858, 0.0393880196, 0.010416667, 0.0028211805,
          0.00119357638, 0.004014757, 0.00661892351, 0.000542534748 ]
      - [ 0.0819963589, 0.115205452, 0.241524115, 0.208841264,
          0.450045943, 0.0951423049, 0.434328198, 0.0915123969,
          0.514572263, 0.0232640337, 0.537667632, 0.0373634063,
          0.374240458, 0.522786438, 0.020399306, 0.00227864576,
          0.00227864576, 0.00141059025, 0.0028211805, 0.0291883685,
          0.0049913195, 0.00358072924, 0.00759548601, 0.003797743,
          0.00466579851, 0.00466579851, 0.0069444445, 0.00835503452,
          0.144205734, 0.376519084, 0.0540364571, 0.0248480905,
          0.0179036465, 0.0193142369, 0.0926649272, 0.122070312,
          0.0899522603, 0.0367838554, 0.00759548601, 0.00314670149,
          0.0029296875, 0.004014757, 0.00336371525, 0.000651041686 ]
      - [ 0.0841660723, 0.118345045, 0.242760673, 0.20738396,
          0.461910218, 0.0984070078, 0.445551634, 0.0964764357,
          0.514652252, 0.0235069655, 0.538519084, 0.0376365222,
          0.350368917, 0.544270813, 0.0192057285, 0.00314670149,
          0.00227864576, 0.00238715275, 0.00325520826, 0.0278862845,
          0.00726996548, 0.00314670149, 0.0047743055, 0.00423177099,
          0.003797743, 0.00629340298, 0.00813802052, 0.00954861101,
          0.168511286, 0.343098968, 0.0520833321, 0.0251736119,
          0.0183376744, 0.0217013881, 0.100043401, 0.132486984,
          0.0851779506, 0.033203125, 0.00726996548, 0.00249565975,
          0.00423177099, 0.00260416674, 0.00325520826, 0.000325520843 ]
      - [ 0.075311482, 0.095548518, 0.239833966, 0.205665663,
          0.472167343, 0.0991765857, 0.45631212, 0.0972208008,
          0.514095247, 0.0242087673, 0.538805485, 0.0378229395,
          0.37879774, 0.533745646, 0.019097222, 0.00390625, 0.001844618,
          0.00141059025, 0.0028211805, 0.0283203125, 0.00748697901,
          0.00162760413, 0.0028211805, 0.00412326399, 0.00249565975,
          0.00412326399, 0.003797743, 0.00358072924, 0.22667101,
          0.284396708, 0.0558810756, 0.022786459, 0.0181206595,
          0.02734375, 0.104926214, 0.130208328, 0.0813802108,
          0.0298394095, 0.005967882, 0.001844618, 0.00336371525,
          0.00325520826, 0.003797743, 0.000217013891 ]
      - [ 0.0757599771, 0.0788112208, 0.218811706, 0.198776409,
          0.498532802, 0.0893161818, 0.487116605, 0.0748823881,
          0.511427283, 0.0227193888, 0.540539443, 0.0410508104,
          0.182942703, 0.720811605, 0.0404730886, 0.00423177099,
          0.00227864576, 0.002061632, 0.00325520826, 0.0259331595,
          0.00347222225, 0.002061632, 0.00314670149, 0.000868055562,
          0.00227864576, 0.00162760413, 0.00249565975, 0.002061632,
          0.0999348983, 0.499240458, 0.0394965261, 0.024305556,
          0.0224609375, 0.025824653, 0.0469835065, 0.119466148,
          0.0813802108, 0.024739584, 0.00390625, 0.0010850695,
          0.00130208337, 0.00130208337, 0.00824652798, 0.000325520843 ]
      - [ 0.0752757341, 0.0788879916, 0.21211873, 0.199389383,
          0.484608173, 0.089185603, 0.475136578, 0.0762118921,
          0.510995388, 0.02271658, 0.537940383, 0.039327424, 0.283854157,
          0.614040792, 0.041015625, 0.00531684048, 0.00368923601,
          0.0030381945, 0.0048828125, 0.02734375, 0.00542534702,
          0.000217013891, 0.00238715275, 0.00141059025, 0.0010850695,
          0.0010850695, 0.0029296875, 0.00227864576, 0.0947265625,
          0.529947937, 0.028645834, 0.0222439244, 0.0246310756,
          0.022786459, 0.0462239571, 0.108940974, 0.0806206614,
          0.024305556, 0.003797743, 0.000759548624, 0.00119357638,
          0.001953125, 0.00824652798, 0.0009765625 ]
      - [ 0.0785500929, 0.0766037852, 0.211683437, 0.20181042,
          0.477519065, 0.0919484049, 0.46926105, 0.0818645954,
          0.51024133, 0.0226832069, 0.537296176, 0.0387061387,
          0.234700516, 0.608723938, 0.0864800364, 0.010633681,
          0.00434027798, 0.00466579851, 0.005750868, 0.0276692715,
          0.00618489599, 0.00271267351, 0.00249565975, 0.000325520843,
          0.000651041686, 0.00130208337, 0.00151909725, 0.001844618,
          0.132378474, 0.483723968, 0.0343967006, 0.0234375,
          0.0213758685, 0.025390625, 0.0565321185, 0.102213539,
          0.0725911483, 0.029296875, 0.00434027798, 0.00162760413,
          0.0010850695, 0.002061632, 0.0078125, 0.00173611112 ]
      - [ 0.0893135518, 0.0786133409, 0.213493153, 0.206061378,
          0.525330603, 0.102147184, 0.51583606, 0.0769039392,
          0.507167399, 0.0268006343, 0.542059839, 0.0442314334,
          0.0997178853, 0.670138896, 0.143446177, 0.0116102435,
          0.00564236101, 0.00553385401, 0.0049913195, 0.0392795131,
          0.00987413153, 0.004014757, 0.001844618, 0.000108506945,
          0.000542534748, 0.00130208337, 0.000759548624, 0.00119357638,
          0.159288198, 0.448350698, 0.042100694, 0.016059028,
          0.0235460065, 0.0159505215, 0.0689019114, 0.129774302,
          0.0640190989, 0.0078125, 0.00151909725, 0.00141059025,
          0.00141059025, 0.00271267351, 0.0155164935, 0.00162760413 ]
      - [ 0.130529597, 0.144536376, 0.204873025, 0.211996317,
          0.518578947, 0.113594688, 0.515050113, 0.108812161,
          0.501034856, 0.0350992642, 0.527567983, 0.0274294466,
          0.0843098983, 0.653645813, 0.0589192696, 0.00933159702,
          0.00629340298, 0.00651041651, 0.00813802052, 0.0648871511,
          0.0163845494, 0.0109592015, 0.0192057285, 0.0423177071,
          0.00726996548, 0.00455729151, 0.00509982649, 0.00217013899,
          0.218315974, 0.325629354, 0.0640190989, 0.0564236119,
          0.0910373256, 0.127061635, 0.049913194, 0.00564236101,
          0.00151909725, 0.00141059025, 0.00151909725, 0.00217013899,
          0.00466579851, 0.00911458302, 0.0268012155, 0.014756944 ]
      - [ 0.129144117, 0.14302285, 0.20794186, 0.211357728, 0.512994051,
          0.112967275, 0.508952022, 0.108686656, 0.501311004,
          0.0353366919, 0.528439045, 0.0270726718, 0.0926649272,
          0.637261271, 0.0680338517, 0.00868055597, 0.00824652798,
          0.005750868, 0.0078125, 0.0655381978, 0.014539931, 0.011501736,
          0.0343967006, 0.02734375, 0.00520833349, 0.00336371525,
          0.00748697901, 0.00217013899, 0.21885851, 0.308051229,
          0.0733506978, 0.0552300364, 0.0974392369, 0.123697914,
          0.0532769114, 0.00792100653, 0.00162760413, 0.00173611112,
          0.002061632, 0.00227864576, 0.00434027798, 0.010199653,
          0.0257161465, 0.0142144095 ]
      - [ 0.122314982, 0.135407895, 0.219720602, 0.217376888,
          0.513887584, 0.117535628, 0.507968664, 0.113015465,
          0.501074433, 0.0365417227, 0.529129624, 0.0280692037,
          0.104058161, 0.644097209, 0.0598958321, 0.00965711847,
          0.00661892351, 0.00444878452, 0.00857204851, 0.0707465261,
          0.0202907994, 0.00922309048, 0.020616319, 0.0265842006,
          0.00922309048, 0.00314670149, 0.00249565975, 0.000325520843,
          0.203342021, 0.287760407, 0.0715060756, 0.0611979179,
          0.108506948, 0.134982646, 0.055772569, 0.00857204851,
          0.001953125, 0.001844618, 0.00173611112, 0.00173611112,
          0.00455729151, 0.0129123265, 0.0287543405, 0.0148654515 ]
      - [ 0.3547526, 0.0685393289, 0.408722252, 0.114811949, 0.54198283,
          0.217102706, 0.47754544, 0.175123975, 0.464013994,
          0.0147046978, 0.460879624, 0.0558258966, 0., 0., 0.,
          0.028862847, 0.0684678853, 0.0405815989, 0.0528428815,
          0.0737847239, 0.574435771, 0.158420146, 0.00227864576,
          0.000108506945, 0.000108506945, 0.000108506945, 0., 0.,
          0.000868055562, 0.00325520826, 0.00954861101, 0.12890625,
          0.123480901, 0.0695529506, 0.101888023, 0.345269084,
          0.194769964, 0.0100911455, 0.0068359375, 0.00553385401, 0., 0.,
          0., 0. ]
      - [ 0.353036076, 0.0690323412, 0.407304853, 0.113546565,
          0.534440935, 0.219536513, 0.47270605, 0.178298563, 0.463566333,
          0.0147286626, 0.463095307, 0.0558105446, 0., 0.,
          0.000217013891, 0.030164931, 0.0669487864, 0.0431857631,
          0.057725694, 0.0806206614, 0.576931417, 0.140625,
          0.00336371525, 0.000108506945, 0.000108506945, 0., 0., 0., 0.,
          0., 0.00661892351, 0.135742188, 0.126953125, 0.0804036483,
          0.104492188, 0.338541657, 0.18359375, 0.010416667,
          0.00726996548, 0.005859375, 0.000108506945, 0., 0., 0. ]
      - [ 0.347119242, 0.070652619, 0.40115273, 0.114499882, 0.518809557,
          0.222606421, 0.461957037, 0.182994366, 0.463245928,
          0.0149651859, 0.467709184, 0.0563575216, 0.000108506945, 0.,
          0.000651041686, 0.0330946185, 0.0719401017, 0.0482855886,
          0.0730251744, 0.0973307267, 0.549370646, 0.124565974,
          0.00162760413, 0., 0., 0., 0., 0., 0.000108506945, 0.,
          0.00618489599, 0.143337667, 0.138563365, 0.087890625,
          0.111328125, 0.329210073, 0.158637151, 0.00987413153,
          0.0078125, 0.00705295149, 0., 0., 0., 0. ]
      - [ 0.372172445, 0.055588495, 0.404879838, 0.112225778,
          0.386738747, 0.160953134, 0.335563481, 0.127348155,
          0.480370462, 0.0117646856, 0.460670263, 0.0405639149, 0., 0.,
          0.00173611112, 0.016059028, 0.024522569, 0.0237630215,
          0.0431857631, 0.0873480886, 0.398871541, 0.404188365,
          0.000325520843, 0., 0., 0., 0., 0., 0.000542534748,
          0.001953125, 0.0283203125, 0.100151911, 0.111545138,
          0.114908852, 0.139105901, 0.270724833, 0.217447922,
          0.0135633685, 0.00162760413, 0.000108506945, 0., 0., 0., 0. ]
      - [ 0.366589218, 0.0611386076, 0.393133432, 0.116116926,
          0.372120112, 0.16101867, 0.325956553, 0.130377248, 0.480098128,
          0.0118279513, 0.465331405, 0.0408966951, 0., 0.000108506945,
          0.00553385401, 0.019965278, 0.0311414935, 0.0231119785,
          0.0552300364, 0.0932074636, 0.398111969, 0.372395843,
          0.00119357638, 0., 0., 0., 0., 0., 0., 0.0028211805,
          0.0324435756, 0.126193583, 0.126953125, 0.118381076,
          0.126844615, 0.246961802, 0.20692274, 0.010633681,
          0.00130208337, 0.000434027781, 0.000108506945, 0., 0., 0. ]
      - [ 0.36202386, 0.0613637455, 0.375083834, 0.120170258,
          0.352815658, 0.155839145, 0.313294023, 0.129861608,
          0.479791313, 0.010756555, 0.470283985, 0.0385177881, 0., 0.,
          0.001953125, 0.0187717006, 0.0366753489, 0.0350477435,
          0.0621744804, 0.110460073, 0.405056417, 0.327907979,
          0.001844618, 0.000108506945, 0., 0., 0., 0., 0.000108506945,
          0.00347222225, 0.0519748256, 0.158745661, 0.132052958,
          0.118164062, 0.120768227, 0.232421875, 0.175347224,
          0.00629340298, 0.000542534748, 0.000108506945, 0., 0., 0., 0. ]
      - [ 0.372277975, 0.0389144756, 0.370170385, 0.111084446,
          0.296884775, 0.145386547, 0.264231443, 0.129394695,
          0.481840611, 0.0100334566, 0.473612815, 0.0282627735, 0., 0.,
          0., 0.000325520843, 0.003797743, 0.013237847, 0.0654296875,
          0.140625, 0.482747406, 0.292534709, 0.00130208337, 0., 0., 0.,
          0., 0., 0., 0.0009765625, 0.0254991315, 0.150607646,
          0.180447042, 0.154405385, 0.139105901, 0.19542101, 0.142469615,
          0.00900607649, 0.001844618, 0.000217013891, 0., 0., 0., 0. ]
      - [ 0.373052835, 0.0392629318, 0.369554222, 0.112372823,
          0.313639104, 0.158367842, 0.277800322, 0.136609122,
          0.481859773, 0.0102028754, 0.471005231, 0.030799076, 0., 0.,
          0.000325520843, 0.000651041686, 0.00455729151, 0.011067708,
          0.0620659739, 0.139973953, 0.482421875, 0.296115458,
          0.0028211805, 0., 0., 0., 0., 0., 0., 0.00227864576,
          0.0335286446, 0.147786453, 0.179036453, 0.141384542,
          0.13671875, 0.215603292, 0.135199651, 0.0068359375,
          0.00151909725, 0.000108506945, 0., 0., 0., 0. ]
      - [ 0.375503808, 0.0505165942, 0.43331334, 0.110527031, 0.25289011,
          0.147180632, 0.210204765, 0.124382548, 0.485230714,
          0.0106173083, 0.470506102, 0.0290890113, 0.000759548624,
          0.000651041686, 0.000651041686, 0.00325520826, 0.016927084,
          0.0224609375, 0.0563151054, 0.0873480886, 0.425238729, 0.375,
          0.010199653, 0.000759548624, 0.000217013891, 0.000217013891,
          0., 0., 0.000542534748, 0.00434027798, 0.0197482631,
          0.0447048619, 0.0871310756, 0.117621526, 0.146701396,
          0.274631083, 0.245008677, 0.0394965261, 0.012152778,
          0.005750868, 0.00162760413, 0.000542534748, 0., 0. ]
      - [ 0.376325905, 0.0473297983, 0.435365617, 0.105445616,
          0.241490081, 0.13560909, 0.200732738, 0.11531949, 0.48544389,
          0.0101533057, 0.471724778, 0.0271603595, 0.000542534748,
          0.000108506945, 0.0009765625, 0.00217013899, 0.0137803815,
          0.0205078125, 0.0520833321, 0.0881076381, 0.451714396,
          0.358832479, 0.00954861101, 0.00119357638, 0.000325520843, 0.,
          0.000108506945, 0., 0.0009765625, 0.00271267351, 0.016276041,
          0.0388454869, 0.0824652761, 0.119466148, 0.151584208,
          0.293728292, 0.236436635, 0.0403645821, 0.011067708,
          0.0048828125, 0.000759548624, 0.000434027781, 0., 0. ]
      - [ 0.34506911, 0.10175357, 0.335911542, 0.104695551, 0.43143937,
          0.109534331, 0.395200163, 0.0910517499, 0.483487368,
          0.00974594615, 0.475654453, 0.0491616763, 0., 0.000108506945,
          0.0617404506, 0.0972222239, 0.0325520821, 0.014973958,
          0.024088541, 0.0320095494, 0.221896708, 0.515299499,
          0.000108506945, 0., 0., 0., 0., 0., 0.000434027781,
          0.029730903, 0.0986328125, 0.0932074636, 0.0895182267,
          0.244466141, 0.356011271, 0.0619574636, 0.011284722,
          0.00640190952, 0.0069444445, 0.00141059025, 0., 0., 0., 0. ]
      - [ 0.344706982, 0.101982541, 0.336648554, 0.103465766,
          0.429930896, 0.108459942, 0.393853813, 0.0903703719,
          0.483371198, 0.00981596857, 0.475799114, 0.0490711853, 0., 0.,
          0.0582682304, 0.103298612, 0.0329861119, 0.0137803815,
          0.022569444, 0.0316840261, 0.222005203, 0.515299499,
          0.000108506945, 0., 0., 0., 0., 0., 0.000868055562,
          0.0232204869, 0.100368924, 0.0944010392, 0.091796875,
          0.249240458, 0.356119782, 0.0559895821, 0.013237847,
          0.00564236101, 0.00661892351, 0.00249565975, 0., 0., 0., 0. ]
      - [ 0.36884743, 0.0758886263, 0.346502244, 0.119034208,
          0.387011081, 0.111363262, 0.347225636, 0.0944342241,
          0.486300051, 0.0096219508, 0.467136443, 0.0370060094, 0., 0.,
          0.0122612845, 0.0467664935, 0.0363498256, 0.0237630215,
          0.0338541679, 0.0402560756, 0.233398438, 0.572808146,
          0.000542534748, 0., 0., 0., 0., 0., 0.0010850695, 0.043836806,
          0.113715276, 0.072265625, 0.0579427071, 0.177951396,
          0.376410604, 0.111219615, 0.020399306, 0.0109592015,
          0.00922309048, 0.0049913195, 0., 0., 0., 0. ]
      - [ 0.370056778, 0.0762104318, 0.338054031, 0.122869633,
          0.414221227, 0.118254595, 0.371651173, 0.0993039384,
          0.486865133, 0.0101851728, 0.464685887, 0.0385193974,
          0.000108506945, 0.000325520843, 0.0113932295, 0.046875,
          0.0372178815, 0.0224609375, 0.034288194, 0.0374348946,
          0.223741323, 0.584960938, 0.00119357638, 0., 0., 0., 0., 0.,
          0.00260416674, 0.0632595494, 0.111111112, 0.0726996511,
          0.0630425364, 0.196289062, 0.345811635, 0.102105036,
          0.0170355905, 0.012152778, 0.00857204851, 0.00531684048, 0.,
          0., 0., 0. ]
      - [ 0.365462452, 0.0774043947, 0.336808115, 0.121286318,
          0.375269771, 0.108450122, 0.338873148, 0.0933220014,
          0.486260891, 0.00980323087, 0.469641894, 0.0361878164,
          0.000108506945, 0., 0.0107421875, 0.0474175364, 0.0424262136,
          0.0310329869, 0.0404730886, 0.0426432304, 0.255859375,
          0.527886271, 0.00130208337, 0., 0., 0.000108506945, 0., 0.,
          0.00217013899, 0.0545789935, 0.115993924, 0.08203125,
          0.0595703125, 0.210611984, 0.336480021, 0.0992838517,
          0.014756944, 0.00998263899, 0.00889756903, 0.00564236101, 0.,
          0., 0., 0. ]
      - [ 0.367502809, 0.0740082562, 0.341014355, 0.123194441,
          0.391647518, 0.132046595, 0.35169059, 0.10644827, 0.485578358,
          0.00964256376, 0.467473447, 0.0391661227, 0.000108506945, 0.,
          0.00889756903, 0.0441623256, 0.0388454869, 0.0252821185,
          0.0377604179, 0.0489366315, 0.262803823, 0.532552063,
          0.000651041686, 0., 0., 0., 0., 0., 0.00119357638, 0.038194444,
          0.127929688, 0.0893012136, 0.0691189244, 0.185980901,
          0.3203125, 0.113932289, 0.027777778, 0.00748697901,
          0.0105251735, 0.00824652798, 0., 0., 0., 0. ]
      - [ 0.369143605, 0.0714338422, 0.340734363, 0.122692905,
          0.388008505, 0.127070084, 0.348766416, 0.103353389,
          0.485616237, 0.00934835803, 0.467348337, 0.037467178, 0., 0.,
          0.00564236101, 0.041015625, 0.0391710065, 0.024305556,
          0.0392795131, 0.0470920131, 0.272786468, 0.530381918,
          0.000325520843, 0., 0., 0., 0., 0., 0.00151909725, 0.046006944,
          0.120334201, 0.0833333358, 0.0707465261, 0.188368052,
          0.329318583, 0.110026039, 0.0246310756, 0.00748697901,
          0.010633681, 0.00759548601, 0., 0., 0., 0. ]
      - [ 0.368661493, 0.0723340958, 0.337977439, 0.120921582,
          0.380422801, 0.116873048, 0.343759775, 0.0986533239,
          0.485611975, 0.00912457239, 0.46892786, 0.0355652645,
          0.000108506945, 0., 0.0087890625, 0.040147569, 0.037977431,
          0.0248480905, 0.0384114571, 0.0454644114, 0.276909709,
          0.526367188, 0.0009765625, 0., 0., 0., 0., 0., 0.0010850695,
          0.0478515625, 0.123697914, 0.0819227397, 0.0610894114,
          0.196831599, 0.354709208, 0.0936414897, 0.014322917,
          0.0068359375, 0.0100911455, 0.00759548601, 0.000325520843, 0.,
          0., 0. ]
      - [ 0.369119763, 0.0733981207, 0.339017391, 0.125047177,
          0.399282157, 0.137013078, 0.357521445, 0.110524364, 0.48622942,
          0.00964664668, 0.466064125, 0.0394464135, 0., 0.,
          0.00792100653, 0.0432942696, 0.037109375, 0.027777778,
          0.0372178815, 0.040147569, 0.251736104, 0.553602457,
          0.0010850695, 0., 0.000108506945, 0., 0., 0., 0.00151909725,
          0.05078125, 0.126193583, 0.0836588517, 0.0667317733,
          0.185872391, 0.310763896, 0.122504339, 0.0263671875,
          0.00846354198, 0.0103081595, 0.0068359375, 0., 0., 0., 0. ]
      - [ 0.36771813, 0.0750754029, 0.339404196, 0.126267329,
          0.401909292, 0.138690785, 0.359980941, 0.112844378, 0.48611325,
          0.0102495579, 0.466299862, 0.0402135402, 0., 0., 0.00987413153,
          0.0428602435, 0.0413411446, 0.026258681, 0.0409071185,
          0.046006944, 0.244574651, 0.54698348, 0.00119357638, 0., 0.,
          0., 0., 0., 0.00227864576, 0.0501302071, 0.12489149,
          0.0863715261, 0.0678168386, 0.185980901, 0.297200531,
          0.13292101, 0.026258681, 0.00857204851, 0.00965711847,
          0.00792100653, 0., 0., 0., 0. ]
      - [ 0.363034874, 0.0796584338, 0.319512963, 0.1276941, 0.400730193,
          0.123150758, 0.365148425, 0.103308238, 0.485903472,
          0.0105303051, 0.470070392, 0.0382272676, 0.000217013891,
          0.000325520843, 0.0148654515, 0.045789931, 0.0455729179,
          0.029296875, 0.0445963554, 0.0453559011, 0.279622406,
          0.489800334, 0.00434027798, 0.000217013891, 0., 0., 0., 0.,
          0.00412326399, 0.0693359375, 0.126193583, 0.104275174,
          0.100585938, 0.217013896, 0.255425334, 0.078125, 0.0137803815,
          0.00987413153, 0.010416667, 0.0105251735, 0.000325520843, 0.,
          0., 0. ]
      - [ 0.382626116, 0.0746063292, 0.382025301, 0.143195361,
          0.282270402, 0.0862007067, 0.239137396, 0.0734824017,
          0.49396956, 0.00990660209, 0.466700703, 0.0297240615,
          0.000108506945, 0.0010850695, 0.014973958, 0.0387369804,
          0.0257161465, 0.0152994795, 0.0220269095, 0.022352431,
          0.151475698, 0.698459208, 0.00911458302, 0.000434027781,
          0.000217013891, 0., 0., 0., 0.004014757, 0.034071181,
          0.0861545131, 0.0671657994, 0.0574001744, 0.106119789,
          0.32432726, 0.241753474, 0.0319010429, 0.0028211805,
          0.001844618, 0.003797743, 0.0236545131, 0.014973958, 0., 0. ]
      - [ 0.382626116, 0.0746063292, 0.382025301, 0.143195361,
          0.282270402, 0.0862007067, 0.239137396, 0.0734824017,
          0.49396956, 0.00990660209, 0.466700703, 0.0297240615,
          0.000108506945, 0.0010850695, 0.014973958, 0.0387369804,
          0.0257161465, 0.0152994795, 0.0220269095, 0.022352431,
          0.151475698, 0.698459208, 0.00911458302, 0.000434027781,
          0.000217013891, 0., 0., 0., 0.004014757, 0.034071181,
          0.0861545131, 0.0671657994, 0.0574001744, 0.106119789,
          0.32432726, 0.241753474, 0.0319010429, 0.0028211805,
          0.001844618, 0.003797743, 0.0236545131, 0.014973958, 0., 0. ]
      - [ 0.384012878, 0.0738636032, 0.384989023, 0.142524377,
          0.282039344, 0.0860367864, 0.238090187, 0.0737072974,
          0.494373381, 0.00960148126, 0.466056913, 0.0292837787,
          0.000108506945, 0.000325520843, 0.014756944, 0.0378689244,
          0.0276692715, 0.0139973955, 0.0193142369, 0.0189887155,
          0.140950516, 0.716796875, 0.00813802052, 0.000759548624,
          0.000217013891, 0.000108506945, 0., 0., 0.00368923601,
          0.0374348946, 0.0798611119, 0.0686848983, 0.0517578125,
          0.0866970494, 0.34375, 0.246527776, 0.034288194, 0.00325520826,
          0.0028211805, 0.00347222225, 0.020833334, 0.016927084, 0., 0. ]
      - [ 0.384012878, 0.0738636032, 0.384989023, 0.142524377,
          0.282039344, 0.0860367864, 0.238090187, 0.0737072974,
          0.494373381, 0.00960148126, 0.466056913, 0.0292837787,
          0.000108506945, 0.000325520843, 0.014756944, 0.0378689244,
          0.0276692715, 0.0139973955, 0.0193142369, 0.0189887155,
          0.140950516, 0.716796875, 0.00813802052, 0.000759548624,
          0.000217013891, 0.000108506945, 0., 0., 0.00368923601,
          0.0374348946, 0.0798611119, 0.0686848983, 0.0517578125,
          0.0866970494, 0.34375, 0.246527776, 0.034288194, 0.00325520826,
          0.0028211805, 0.00347222225, 0.020833334, 0.016927084, 0., 0. ]
      - [ 0.383949906, 0.0718834177, 0.385823041, 0.140544415,
          0.279384971, 0.083805494, 0.236266419, 0.0720341653,
          0.493890435, 0.00940120034, 0.466530919, 0.0285433121,
          0.000217013891, 0.000108506945, 0.011501736, 0.0386284739,
          0.026475694, 0.014756944, 0.0179036465, 0.0220269095,
          0.150824651, 0.71104598, 0.005859375, 0.000542534748,
          0.000108506945, 0., 0., 0., 0.00217013899, 0.0388454869,
          0.0760633647, 0.0657552108, 0.0475260429, 0.0916883647,
          0.360351562, 0.237087667, 0.0339626744, 0.003797743,
          0.00238715275, 0.00325520826, 0.0209418405, 0.0161675345, 0.,
          0. ]
      - [ 0.383949906, 0.0718834177, 0.385823041, 0.140544415,
          0.279384971, 0.083805494, 0.236266419, 0.0720341653,
          0.493890435, 0.00940120034, 0.466530919, 0.0285433121,
          0.000217013891, 0.000108506945, 0.011501736, 0.0386284739,
          0.026475694, 0.014756944, 0.0179036465, 0.0220269095,
          0.150824651, 0.71104598, 0.005859375, 0.000542534748,
          0.000108506945, 0., 0., 0., 0.00217013899, 0.0388454869,
          0.0760633647, 0.0657552108, 0.0475260429, 0.0916883647,
          0.360351562, 0.237087667, 0.0339626744, 0.003797743,
          0.00238715275, 0.00325520826, 0.0209418405, 0.0161675345, 0.,
          0. ]
      - [ 0.381037235, 0.0755748376, 0.380890012, 0.146017238,
          0.276376545, 0.0871364698, 0.234622657, 0.0754588023,
          0.493694693, 0.00983847957, 0.468093008, 0.0296592489,
          0.000434027781, 0.000542534748, 0.015407986, 0.0386284739,
          0.029947916, 0.0155164935, 0.0215928815, 0.024088541,
          0.16417101, 0.6796875, 0.00922309048, 0.000217013891,
          0.000217013891, 0.000217013891, 0., 0.000108506945,
          0.0030381945, 0.0391710065, 0.0858289897, 0.0696614608,
          0.0590277761, 0.103732638, 0.325086802, 0.229275167,
          0.0356987864, 0.003797743, 0.00151909725, 0.00325520826,
          0.0217013881, 0.0192057285, 0., 0. ]
      - [ 0.381037235, 0.0755748376, 0.380890012, 0.146017238,
          0.276376545, 0.0871364698, 0.234622657, 0.0754588023,
          0.493694693, 0.00983847957, 0.468093008, 0.0296592489,
          0.000434027781, 0.000542534748, 0.015407986, 0.0386284739,
          0.029947916, 0.0155164935, 0.0215928815, 0.024088541,
          0.16417101, 0.6796875, 0.00922309048, 0.000217013891,
          0.000217013891, 0.000217013891, 0., 0.000108506945,
          0.0030381945, 0.0391710065, 0.0858289897, 0.0696614608,
          0.0590277761, 0.103732638, 0.325086802, 0.229275167,
          0.0356987864, 0.003797743, 0.00151909725, 0.00325520826,
          0.0217013881, 0.0192057285, 0., 0. ]
      - [ 0.382941008, 0.0732522085, 0.383349091, 0.142134324,
          0.278158188, 0.0850379467, 0.235814944, 0.0734986737,
          0.493764907, 0.00968442578, 0.467281103, 0.0288790073,
          0.000108506945, 0.00151909725, 0.0131293405, 0.0374348946,
          0.026258681, 0.012803819, 0.0224609375, 0.0231119785,
          0.160590276, 0.692708313, 0.00900607649, 0.000542534748,
          0.000217013891, 0.000108506945, 0., 0., 0.00271267351,
          0.037109375, 0.0783420131, 0.068359375, 0.0589192696,
          0.0947265625, 0.349283844, 0.233398438, 0.0289713535,
          0.00358072924, 0.00217013899, 0.00368923601, 0.021050347,
          0.0176866315, 0., 0. ]
      - [ 0.382941008, 0.0732522085, 0.383349091, 0.142134324,
          0.278158188, 0.0850379467, 0.235814944, 0.0734986737,
          0.493764907, 0.00968442578, 0.467281103, 0.0288790073,
          0.000108506945, 0.00151909725, 0.0131293405, 0.0374348946,
          0.026258681, 0.012803819, 0.0224609375, 0.0231119785,
          0.160590276, 0.692708313, 0.00900607649, 0.000542534748,
          0.000217013891, 0.000108506945, 0., 0., 0.00271267351,
          0.037109375, 0.0783420131, 0.068359375, 0.0589192696,
          0.0947265625, 0.349283844, 0.233398438, 0.0289713535,
          0.00358072924, 0.00217013899, 0.00368923601, 0.021050347,
          0.0176866315, 0., 0. ]
      - [ 0.382368684, 0.0748218596, 0.381324887, 0.142199844,
          0.277116954, 0.0806993097, 0.23508051, 0.0702913404,
          0.493960202, 0.00947722513, 0.467600673, 0.028800156,
          0.000108506945, 0.000542534748, 0.0126953125, 0.0407986119,
          0.0315755196, 0.013888889, 0.018012153, 0.0198567715,
          0.150499135, 0.704969645, 0.00629340298, 0.000325520843,
          0.000217013891, 0.000108506945, 0.000108506945, 0.,
          0.0030381945, 0.0375434011, 0.0818142369, 0.0671657994,
          0.0601128489, 0.0922309011, 0.357530385, 0.227647573,
          0.025824653, 0.00238715275, 0.001953125, 0.00358072924,
          0.021484375, 0.0176866315, 0., 0. ]
      - [ 0.382368684, 0.0748218596, 0.381324887, 0.142199844,
          0.277116954, 0.0806993097, 0.23508051, 0.0702913404,
          0.493960202, 0.00947722513, 0.467600673, 0.028800156,
          0.000108506945, 0.000542534748, 0.0126953125, 0.0407986119,
          0.0315755196, 0.013888889, 0.018012153, 0.0198567715,
          0.150499135, 0.704969645, 0.00629340298, 0.000325520843,
          0.000217013891, 0.000108506945, 0.000108506945, 0.,
          0.0030381945, 0.0375434011, 0.0818142369, 0.0671657994,
          0.0601128489, 0.0922309011, 0.357530385, 0.227647573,
          0.025824653, 0.00238715275, 0.001953125, 0.00358072924,
          0.021484375, 0.0176866315, 0., 0. ]
      - [ 0.38577196, 0.0767728984, 0.384371161, 0.137516662,
          0.280229598, 0.0790538862, 0.235376671, 0.0678029507,
          0.495652914, 0.00947619881, 0.465392679, 0.0286203008,
          0.0030381945, 0.00173611112, 0.0155164935, 0.0367838554,
          0.0254991315, 0.0122612845, 0.013020833, 0.0172526035,
          0.124457464, 0.740017354, 0.00944010448, 0.000108506945,
          0.000325520843, 0.000108506945, 0.000108506945, 0.000325520843,
          0.0030381945, 0.037109375, 0.0726996511, 0.0623914935,
          0.0547960065, 0.0883246511, 0.37510851, 0.238932297,
          0.024956597, 0.00249565975, 0.00151909725, 0.00314670149,
          0.0234375, 0.0120442705, 0., 0. ]
      - [ 0.38577196, 0.0767728984, 0.384371161, 0.137516662,
          0.280229598, 0.0790538862, 0.235376671, 0.0678029507,
          0.495652914, 0.00947619881, 0.465392679, 0.0286203008,
          0.0030381945, 0.00173611112, 0.0155164935, 0.0367838554,
          0.0254991315, 0.0122612845, 0.013020833, 0.0172526035,
          0.124457464, 0.740017354, 0.00944010448, 0.000108506945,
          0.000325520843, 0.000108506945, 0.000108506945, 0.000325520843,
          0.0030381945, 0.037109375, 0.0726996511, 0.0623914935,
          0.0547960065, 0.0883246511, 0.37510851, 0.238932297,
          0.024956597, 0.00249565975, 0.00151909725, 0.00314670149,
          0.0234375, 0.0120442705, 0., 0. ]
      - [ 0.382119745, 0.0805393904, 0.381308287, 0.140715584,
          0.280301958, 0.0801594183, 0.23688513, 0.0689385384,
          0.495076329, 0.00970609393, 0.466790915, 0.0294991434,
          0.00444878452, 0.00336371525, 0.0139973955, 0.0407986119,
          0.0287543405, 0.0107421875, 0.0174696185, 0.0168185756,
          0.132378474, 0.72265625, 0.00726996548, 0.000217013891,
          0.000108506945, 0.000217013891, 0.000108506945, 0.000651041686,
          0.00271267351, 0.0372178815, 0.0822482631, 0.0697699636,
          0.0562065989, 0.0877821147, 0.365559906, 0.226128474,
          0.026692709, 0.0030381945, 0.001953125, 0.00466579851,
          0.0222439244, 0.0137803815, 0., 0. ]
      - [ 0.382119745, 0.0805393904, 0.381308287, 0.140715584,
          0.280301958, 0.0801594183, 0.23688513, 0.0689385384,
          0.495076329, 0.00970609393, 0.466790915, 0.0294991434,
          0.00444878452, 0.00336371525, 0.0139973955, 0.0407986119,
          0.0287543405, 0.0107421875, 0.0174696185, 0.0168185756,
          0.132378474, 0.72265625, 0.00726996548, 0.000217013891,
          0.000108506945, 0.000217013891, 0.000108506945, 0.000651041686,
          0.00271267351, 0.0372178815, 0.0822482631, 0.0697699636,
          0.0562065989, 0.0877821147, 0.365559906, 0.226128474,
          0.026692709, 0.0030381945, 0.001953125, 0.00466579851,
          0.0222439244, 0.0137803815, 0., 0. ]
      - [ 0.379204541, 0.0834389925, 0.37917006, 0.143932268,
          0.281968266, 0.0809555724, 0.239248022, 0.0690645278,
          0.494705707, 0.00989665091, 0.467507929, 0.0304942448,
          0.00520833349, 0.0030381945, 0.0155164935, 0.046006944,
          0.028645834, 0.013888889, 0.0157335065, 0.0211588535,
          0.137261286, 0.704535604, 0.00748697901, 0.000217013891,
          0.000217013891, 0., 0.000325520843, 0.000759548624,
          0.00325520826, 0.0422092006, 0.0848524272, 0.0646701381,
          0.0595703125, 0.0949435756, 0.356662333, 0.218315974,
          0.0274522565, 0.00347222225, 0.001844618, 0.0048828125,
          0.0226779506, 0.015190972, 0., 0. ]
      - [ 0.379204541, 0.0834389925, 0.37917006, 0.143932268,
          0.281968266, 0.0809555724, 0.239248022, 0.0690645278,
          0.494705707, 0.00989665091, 0.467507929, 0.0304942448,
          0.00520833349, 0.0030381945, 0.0155164935, 0.046006944,
          0.028645834, 0.013888889, 0.0157335065, 0.0211588535,
          0.137261286, 0.704535604, 0.00748697901, 0.000217013891,
          0.000217013891, 0., 0.000325520843, 0.000759548624,
          0.00325520826, 0.0422092006, 0.0848524272, 0.0646701381,
          0.0595703125, 0.0949435756, 0.356662333, 0.218315974,
          0.0274522565, 0.00347222225, 0.001844618, 0.0048828125,
          0.0226779506, 0.015190972, 0., 0. ]
      - [ 0.379541129, 0.0824645534, 0.378981978, 0.143268347,
          0.281032145, 0.0808177143, 0.238391891, 0.0688490346,
          0.494709969, 0.00994215533, 0.467586637, 0.0302629862,
          0.0048828125, 0.00325520826, 0.0170355905, 0.0400390625,
          0.0322265625, 0.0131293405, 0.0168185756, 0.019097222,
          0.137803823, 0.706488729, 0.00846354198, 0., 0.000217013891,
          0.000108506945, 0., 0.000434027781, 0.00217013899,
          0.0435112864, 0.0805121511, 0.0705295131, 0.0569661446,
          0.103624135, 0.354058146, 0.211371526, 0.028645834,
          0.00434027798, 0.001953125, 0.0047743055, 0.022569444,
          0.014973958, 0., 0. ]
      - [ 0.379541129, 0.0824645534, 0.378981978, 0.143268347,
          0.281032145, 0.0808177143, 0.238391891, 0.0688490346,
          0.494709969, 0.00994215533, 0.467586637, 0.0302629862,
          0.0048828125, 0.00325520826, 0.0170355905, 0.0400390625,
          0.0322265625, 0.0131293405, 0.0168185756, 0.019097222,
          0.137803823, 0.706488729, 0.00846354198, 0., 0.000217013891,
          0.000108506945, 0., 0.000434027781, 0.00217013899,
          0.0435112864, 0.0805121511, 0.0705295131, 0.0569661446,
          0.103624135, 0.354058146, 0.211371526, 0.028645834,
          0.00434027798, 0.001953125, 0.0047743055, 0.022569444,
          0.014973958, 0., 0. ]
      - [ 0.154408783, 0.141594306, 0.303582013, 0.294601321,
          0.405207068, 0.138705924, 0.406265318, 0.147471085,
          0.491681129, 0.0331133492, 0.529249668, 0.0405107103,
          0.0920138881, 0.436523438, 0.179361984, 0.0244140625,
          0.0129123265, 0.00705295149, 0.011284722, 0.0824652761,
          0.0760633647, 0.0400390625, 0.016927084, 0.00271267351,
          0.00358072924, 0.00705295149, 0.0048828125, 0.00271267351,
          0.166124135, 0.262695312, 0.165690109, 0.0567491315,
          0.018663194, 0.00802951399, 0.00998263899, 0.00954861101,
          0.020616319, 0.041883681, 0.0639105886, 0.0615234375,
          0.0373263881, 0.0337456614, 0.0336371511, 0.00987413153 ]
      - [ 0.14662692, 0.143886194, 0.301479936, 0.292674601, 0.419209987,
          0.146612734, 0.419447839, 0.155698359, 0.492069215,
          0.0347393602, 0.529464126, 0.0407620668, 0.157660589,
          0.401584208, 0.172309026, 0.0234375, 0.012586806, 0.005859375,
          0.013454861, 0.0785590261, 0.0712890625, 0.0209418405,
          0.0137803815, 0.001844618, 0.0049913195, 0.0068359375,
          0.00824652798, 0.00661892351, 0.157769099, 0.305881083,
          0.128472224, 0.0569661446, 0.01953125, 0.00911458302,
          0.0078125, 0.0087890625, 0.0173611119, 0.0435112864,
          0.0655381978, 0.0733506978, 0.0375434011, 0.0427517369,
          0.0185546875, 0.00705295149 ]
      - [ 0.171823934, 0.151349694, 0.267106652, 0.269284129, 0.42117247,
          0.134268314, 0.425153613, 0.141456902, 0.491631776,
          0.0309997294, 0.526064217, 0.038164299, 0.0927734375,
          0.349066854, 0.213324651, 0.0270182285, 0.0181206595,
          0.0068359375, 0.0144314235, 0.0904947892, 0.0740017369,
          0.0681423619, 0.0196397565, 0.0030381945, 0.00640190952,
          0.00618489599, 0.0067274305, 0.003797743, 0.173719615,
          0.305772573, 0.126085073, 0.0762803853, 0.0403645821,
          0.021050347, 0.011284722, 0.0100911455, 0.01953125,
          0.036241319, 0.053819444, 0.0393880196, 0.0290798619,
          0.0327690989, 0.0163845494, 0.00813802052 ]
      - [ 0.18006365, 0.160541937, 0.25844866, 0.26643917, 0.424076617,
          0.133258969, 0.428584546, 0.140481547, 0.49222368,
          0.0302412119, 0.524679184, 0.0378001407, 0.0864800364,
          0.349283844, 0.209960938, 0.0196397565, 0.0155164935,
          0.00965711847, 0.0120442705, 0.0792100728, 0.0826822892,
          0.0709635392, 0.026909722, 0.00434027798, 0.00792100653,
          0.00802951399, 0.0109592015, 0.00640190952, 0.192165792,
          0.309570312, 0.116427951, 0.0738932267, 0.0355902761,
          0.022352431, 0.014322917, 0.0113932295, 0.0176866315,
          0.0353732631, 0.0529513881, 0.0372178815, 0.0283203125,
          0.0274522565, 0.018446181, 0.0068359375 ]
      - [ 0.140351385, 0.137278467, 0.303327978, 0.292036861,
          0.416844547, 0.144795924, 0.416850924, 0.153831512,
          0.492563665, 0.0342449136, 0.530143678, 0.0400150232,
          0.161783859, 0.410590291, 0.175455734, 0.0231119785,
          0.0116102435, 0.0067274305, 0.01171875, 0.0856119767,
          0.059678819, 0.0177951381, 0.0135633685, 0.00238715275,
          0.00390625, 0.00412326399, 0.00542534702, 0.00651041651,
          0.155707464, 0.303819448, 0.126193583, 0.0662977397,
          0.0194227435, 0.00987413153, 0.00824652798, 0.00987413153,
          0.016493056, 0.0412326381, 0.0643446147, 0.0694444478,
          0.0372178815, 0.0365668386, 0.0265842006, 0.00868055597 ]
      - [ 0.158794597, 0.149871305, 0.218893826, 0.237834573,
          0.464511007, 0.123998061, 0.472828597, 0.13119486, 0.495312512,
          0.0240523908, 0.526586771, 0.0378698371, 0.0968967006,
          0.344075531, 0.272026896, 0.010199653, 0.00933159702,
          0.00466579851, 0.0109592015, 0.0627170131, 0.0932074636,
          0.0537109375, 0.0150824655, 0.0030381945, 0.0087890625,
          0.00607638899, 0.0048828125, 0.00434027798, 0.232096359,
          0.356770843, 0.0631510392, 0.046875, 0.0593532994,
          0.0450303815, 0.020182291, 0.012803819, 0.0135633685,
          0.0287543405, 0.0397135429, 0.030598959, 0.0252821185,
          0.0189887155, 0.00520833349, 0.00162760413 ]
      - [ 0.159462228, 0.149557635, 0.220361441, 0.238341972,
          0.465184599, 0.12327785, 0.473245174, 0.130123153, 0.495544404,
          0.0233461913, 0.526931405, 0.0382286645, 0.0815972239,
          0.356987834, 0.275716156, 0.0129123265, 0.00792100653,
          0.00455729151, 0.0103081595, 0.0534939244, 0.0897352397,
          0.0627170131, 0.018663194, 0.00227864576, 0.00813802052,
          0.0067274305, 0.00629340298, 0.001953125, 0.21484375,
          0.373155385, 0.0659722239, 0.0505642369, 0.0506727435,
          0.0476345494, 0.022135416, 0.012369792, 0.0118272565,
          0.026909722, 0.038194444, 0.0335286446, 0.025824653,
          0.0189887155, 0.005967882, 0.00141059025 ]
      - [ 0.156001925, 0.148069784, 0.218226194, 0.236805215,
          0.465553939, 0.121114545, 0.473782599, 0.128520101, 0.49577418,
          0.0231149439, 0.527213097, 0.0378171802, 0.0758463517,
          0.37879774, 0.268120646, 0.0120442705, 0.00792100653,
          0.0067274305, 0.011284722, 0.0552300364, 0.0897352397,
          0.0523003489, 0.0183376744, 0.00119357638, 0.00542534702,
          0.0068359375, 0.00792100653, 0.00227864576, 0.208875865,
          0.384765625, 0.0668402761, 0.0454644114, 0.0570746511,
          0.0452473946, 0.021050347, 0.00987413153, 0.011284722,
          0.024522569, 0.040147569, 0.0354817696, 0.0228949655,
          0.0205078125, 0.00509982649, 0.000868055562 ]
      - [ 0.15454495, 0.151494578, 0.29210794, 0.287775815, 0.418698519,
          0.143966407, 0.419726998, 0.152677655, 0.492161959,
          0.0339030139, 0.52793777, 0.039567627, 0.13661024, 0.41395399,
          0.169270828, 0.0170355905, 0.011067708, 0.00520833349,
          0.010850694, 0.0769314244, 0.0814887136, 0.025390625,
          0.0174696185, 0.00390625, 0.00466579851, 0.0068359375,
          0.0100911455, 0.00922309048, 0.177083328, 0.291015625,
          0.129231766, 0.0611979179, 0.0205078125, 0.00987413153,
          0.0103081595, 0.0126953125, 0.022569444, 0.0432942696,
          0.0679253489, 0.055555556, 0.0326605886, 0.0313585065,
          0.0252821185, 0.00944010448 ]
      - [ 0.115596063, 0.0687131211, 0.119875923, 0.134396896,
          0.52769649, 0.0893262103, 0.548904717, 0.0918909013,
          0.496431172, 0.00635621836, 0.528386712, 0.0296669696,
          0.0411241315, 0.296549469, 0.445746541, 0.120334201,
          0.0290798619, 0.013454861, 0.015407986, 0.011067708,
          0.0224609375, 0.001844618, 0.000434027781, 0.000217013891,
          0.000325520843, 0.000759548624, 0.00119357638, 0., 0.323893219,
          0.497287333, 0.0365668386, 0.00726996548, 0.00716145849,
          0.00748697901, 0.028211806, 0.0759548619, 0.0158420131,
          0.000325520843, 0., 0., 0., 0., 0., 0. ]
      - [ 0.131078944, 0.0922824442, 0.110941328, 0.132763773,
          0.525663793, 0.088193737, 0.547440112, 0.0907695293,
          0.496549904, 0.00596584147, 0.525532305, 0.0294365454,
          0.0478515625, 0.275173604, 0.366536468, 0.167317703,
          0.024088541, 0.012369792, 0.0166015625, 0.028862847,
          0.0443793386, 0.005750868, 0.00434027798, 0.0009765625,
          0.000434027781, 0.00141059025, 0.0029296875, 0.0009765625,
          0.386284709, 0.461480021, 0.0159505215, 0.00629340298,
          0.00618489599, 0.0087890625, 0.0347222239, 0.0667317733,
          0.012803819, 0.000759548624, 0., 0., 0., 0., 0., 0. ]
      - [ 0.134238407, 0.0996183604, 0.108554602, 0.132568195,
          0.525214434, 0.0886018798, 0.547365189, 0.0908459947,
          0.49653545, 0.00639409479, 0.524954498, 0.0296745542,
          0.0629340261, 0.267144084, 0.351236969, 0.154622391,
          0.0335286446, 0.0148654515, 0.020399306, 0.0256076381,
          0.0473090261, 0.00640190952, 0.00358072924, 0.00217013899,
          0.00173611112, 0.0029296875, 0.00455729151, 0.0009765625,
          0.419162333, 0.427951396, 0.0174696185, 0.005750868,
          0.00629340298, 0.00835503452, 0.0372178815, 0.0660807267,
          0.0109592015, 0.000651041686, 0.000108506945, 0., 0., 0., 0.,
          0. ]
      - [ 0.129789621, 0.0934659094, 0.110151991, 0.131091416,
          0.525767624, 0.0889011472, 0.547466874, 0.0908860713,
          0.496652037, 0.00642507477, 0.525279999, 0.0293955207,
          0.0626085103, 0.283203125, 0.352756083, 0.153862849,
          0.0336371511, 0.013671875, 0.0155164935, 0.020833334,
          0.0465494804, 0.00705295149, 0.0030381945, 0.0009765625,
          0.000759548624, 0.000434027781, 0.00390625, 0.00119357638,
          0.393337667, 0.454427093, 0.016710069, 0.00618489599,
          0.00792100653, 0.00954861101, 0.034071181, 0.0646701381,
          0.012803819, 0.000325520843, 0., 0., 0., 0., 0., 0. ]
      - [ 0.122447744, 0.0772645697, 0.103022873, 0.0824768543,
          0.525744677, 0.0958255604, 0.547684312, 0.0964768231,
          0.496906072, 0.00568522885, 0.524927258, 0.0194251724,
          0.017578125, 0.303385407, 0.490125865, 0.0666232631,
          0.0310329869, 0.018663194, 0.0131293405, 0.017144097,
          0.0316840261, 0.00314670149, 0.00509982649, 0.000434027781,
          0.000108506945, 0.000217013891, 0.00151909725, 0.000108506945,
          0.263237834, 0.515299499, 0.133355036, 0.0469835065,
          0.0069444445, 0.0047743055, 0.00933159702, 0.0126953125,
          0.0068359375, 0.000325520843, 0.000217013891, 0., 0., 0., 0.,
          0. ]
      - [ 0.10673254, 0.134857312, 0.221689045, 0.223959029, 0.430330455,
          0.111547977, 0.436084718, 0.125630528, 0.504117727,
          0.00497577526, 0.534697115, 0.0363094173, 0.241861984,
          0.489149302, 0.167100698, 0.00249565975, 0.00141059025,
          0.00119357638, 0.00151909725, 0.0009765625, 0.010633681,
          0.0209418405, 0.0189887155, 0.00824652798, 0.00640190952,
          0.0068359375, 0.017144097, 0.00509982649, 0.211914062,
          0.443250865, 0.00868055597, 0.00368923601, 0.00423177099,
          0.00336371525, 0.0131293405, 0.0694444478, 0.132595479,
          0.0900607631, 0.018012153, 0.00130208337, 0.000325520843, 0.,
          0., 0. ]
      - [ 0.107190818, 0.141812295, 0.223889828, 0.225729689,
          0.428781152, 0.111522555, 0.433557153, 0.125921026,
          0.504888356, 0.00502366107, 0.534452021, 0.0363315754,
          0.278862834, 0.471462667, 0.144856766, 0.00151909725,
          0.00151909725, 0.000759548624, 0.00130208337, 0.00130208337,
          0.0111762155, 0.019097222, 0.0174696185, 0.00792100653,
          0.00813802052, 0.00748697901, 0.0185546875, 0.00857204851,
          0.215928823, 0.437825531, 0.00868055597, 0.00260416674,
          0.0030381945, 0.00390625, 0.0146484375, 0.0652126744,
          0.133897573, 0.0919053853, 0.0200737845, 0.00217013899,
          0.000108506945, 0., 0., 0. ]
      - [ 0.10632702, 0.141412139, 0.228576481, 0.228080153, 0.426662922,
          0.110883303, 0.430893004, 0.125551611, 0.505084097,
          0.00509887096, 0.53506732, 0.03653704, 0.276258677,
          0.481662333, 0.142144099, 0.0009765625, 0.000759548624,
          0.00141059025, 0.000651041686, 0.000542534748, 0.00965711847,
          0.016059028, 0.018663194, 0.00857204851, 0.00748697901,
          0.00661892351, 0.0185546875, 0.00998263899, 0.19932726,
          0.447916657, 0.010199653, 0.00271267351, 0.00336371525,
          0.00368923601, 0.0124782985, 0.0592447929, 0.132486984,
          0.102973089, 0.024088541, 0.00151909725, 0., 0., 0., 0. ]
      - [ 0.105616406, 0.12630029, 0.253542423, 0.226958349, 0.410604328,
          0.106596783, 0.413059562, 0.121821798, 0.504424095,
          0.0055001108, 0.539352298, 0.0366997607, 0.203884542,
          0.517795146, 0.177300349, 0.00325520826, 0.001953125,
          0.00173611112, 0.00217013899, 0.002061632, 0.0152994795,
          0.0235460065, 0.018663194, 0.005859375, 0.005750868,
          0.00553385401, 0.00759548601, 0.00759548601, 0.176757812,
          0.390950531, 0.0295138881, 0.0048828125, 0.00509982649,
          0.00531684048, 0.0189887155, 0.0932074636, 0.162217885,
          0.0940755233, 0.0172526035, 0.00173611112, 0., 0., 0., 0. ]
      - [ 0.111000054, 0.129579827, 0.251549721, 0.215281725,
          0.411575764, 0.141588822, 0.413525492, 0.155498415, 0.50415051,
          0.00509338127, 0.538122118, 0.032982748, 0.190429688,
          0.524956584, 0.166449651, 0.00900607649, 0.0067274305,
          0.00520833349, 0.00390625, 0.00249565975, 0.0218098965,
          0.0168185756, 0.0158420131, 0.00434027798, 0.00531684048,
          0.0068359375, 0.0105251735, 0.00933159702, 0.28917101,
          0.224934891, 0.014756944, 0.005967882, 0.00933159702,
          0.0320095494, 0.0862630233, 0.175130203, 0.113064237,
          0.0404730886, 0.0078125, 0.0009765625, 0.000108506945, 0., 0.,
          0. ]
      - [ 0.11048688, 0.13254407, 0.241560712, 0.211921468, 0.423238784,
          0.149976909, 0.425751477, 0.162283003, 0.503983676,
          0.00519123441, 0.537191927, 0.0330226012, 0.23057726,
          0.489040792, 0.162977427, 0.00564236101, 0.0067274305,
          0.00553385401, 0.0049913195, 0.003797743, 0.025390625,
          0.013888889, 0.0120442705, 0.0029296875, 0.00390625,
          0.00737847202, 0.0177951381, 0.00737847202, 0.313476562,
          0.208441839, 0.010633681, 0.005750868, 0.0177951381,
          0.0359157994, 0.112955727, 0.157769099, 0.0978732631,
          0.0300564244, 0.00748697901, 0.00151909725, 0.000325520843, 0.,
          0., 0. ]
      - [ 0.112781696, 0.132692024, 0.240233094, 0.206958205,
          0.429476023, 0.15763779, 0.432077199, 0.168539688, 0.503624558,
          0.00526614487, 0.537677884, 0.0329390429, 0.208550349,
          0.478081584, 0.189778641, 0.00824652798, 0.00737847202,
          0.00737847202, 0.0049913195, 0.00260416674, 0.023003472,
          0.0163845494, 0.013237847, 0.00434027798, 0.00542534702,
          0.00868055597, 0.013454861, 0.00846354198, 0.318793416,
          0.19129774, 0.016276041, 0.00607638899, 0.0172526035,
          0.0407986119, 0.12489149, 0.171549484, 0.0876736119,
          0.0211588535, 0.003797743, 0.000434027781, 0., 0., 0., 0. ]
      - [ 0.110365607, 0.12619783, 0.251131028, 0.209606424, 0.41474843,
          0.158758208, 0.416224122, 0.170341939, 0.503977299,
          0.00510345306, 0.53799063, 0.0316189304, 0.169813365,
          0.551649332, 0.160373271, 0.010850694, 0.00748697901,
          0.00640190952, 0.0048828125, 0.00271267351, 0.0217013881,
          0.014539931, 0.012586806, 0.00466579851, 0.00716145849,
          0.007703993, 0.00922309048, 0.00824652798, 0.277994782,
          0.208550349, 0.029296875, 0.0067274305, 0.0170355905,
          0.0389539935, 0.119249135, 0.159830734, 0.102430552,
          0.0313585065, 0.00759548601, 0.000868055562, 0.000108506945,
          0., 0., 0. ]
      - [ 0.113302529, 0.154948428, 0.190184593, 0.186312854,
          0.474626809, 0.180741414, 0.479431778, 0.187961712,
          0.504779816, 0.00506149745, 0.530663192, 0.0308844186,
          0.294921875, 0.460394979, 0.122395836, 0.0067274305,
          0.00347222225, 0.00325520826, 0.00260416674, 0.0029296875,
          0.015407986, 0.009765625, 0.00944010448, 0.0047743055,
          0.00933159702, 0.0172526035, 0.024088541, 0.013237847,
          0.352105021, 0.265950531, 0.017578125, 0.00726996548,
          0.018880209, 0.0336371511, 0.128580734, 0.134440109,
          0.0374348946, 0.00412326399, 0., 0., 0., 0., 0., 0. ]
      - [ 0.118123211, 0.153744623, 0.188317418, 0.216946155,
          0.425201267, 0.0962696895, 0.433927357, 0.108934529,
          0.504379869, 0.00528559741, 0.52723825, 0.0354308896,
          0.438693583, 0.236328125, 0.170030385, 0.0029296875,
          0.00151909725, 0.00271267351, 0.00238715275, 0.00260416674,
          0.0296223965, 0.0373263881, 0.026692709, 0.0103081595,
          0.011501736, 0.00846354198, 0.011067708, 0.0078125,
          0.259114593, 0.439019084, 0.0393880196, 0.018446181,
          0.0047743055, 0.0029296875, 0.00412326399, 0.0224609375,
          0.08203125, 0.0900607631, 0.0329861119, 0.00444878452,
          0.000217013891, 0., 0., 0. ]
      - [ 0.138592735, 0.169845566, 0.131133839, 0.0706162676,
          0.552848399, 0.136109844, 0.554641128, 0.130996987,
          0.507332921, 0.00537914503, 0.525136173, 0.0207960904,
          0.120659724, 0.667751729, 0.0324435756, 0.00347222225,
          0.0010850695, 0.000759548624, 0.000434027781, 0.000434027781,
          0.0142144095, 0.0233289935, 0.0427517369, 0.0428602435,
          0.0200737845, 0.00564236101, 0.016276041, 0.0078125,
          0.19520399, 0.289822042, 0.283528656, 0.184787333,
          0.0383029506, 0.00629340298, 0.001844618, 0.000108506945,
          0.000108506945, 0., 0., 0., 0., 0., 0., 0. ]
      - [ 0.132715911, 0.118937485, 0.107934199, 0.0899520814,
          0.438419968, 0.106785737, 0.458020568, 0.110960759,
          0.499172807, 0.0058621685, 0.519960582, 0.018200051,
          0.0840928853, 0.335177958, 0.368598104, 0.0508897565,
          0.016710069, 0.012586806, 0.0118272565, 0.0116102435,
          0.044921875, 0.026909722, 0.0159505215, 0.0078125,
          0.0029296875, 0.00336371525, 0.00347222225, 0.00314670149,
          0.31239149, 0.391710073, 0.152669266, 0.0617404506,
          0.0529513881, 0.0087890625, 0.0049913195, 0.00542534702,
          0.00607638899, 0.00227864576, 0.000868055562, 0.000108506945,
          0., 0., 0., 0. ]
      - [ 0.124839157, 0.11009685, 0.110402621, 0.0888716206,
          0.438847601, 0.105272703, 0.458286107, 0.109398685,
          0.499327242, 0.00602124445, 0.521041393, 0.0174835846,
          0.0659722239, 0.371744782, 0.381293416, 0.0397135429,
          0.0189887155, 0.0135633685, 0.012369792, 0.011284722,
          0.0375434011, 0.0159505215, 0.0139973955, 0.0029296875,
          0.004014757, 0.00336371525, 0.00531684048, 0.001953125,
          0.260850698, 0.428276896, 0.166232646, 0.0620659739,
          0.0493706614, 0.0131293405, 0.00737847202, 0.0049913195,
          0.00434027798, 0.00271267351, 0.000542534748, 0.000108506945,
          0., 0., 0., 0. ]
      - [ 0.122790284, 0.114225, 0.118087471, 0.0941752419, 0.426633567,
          0.109997593, 0.444418907, 0.1149721, 0.499851912,
          0.00572316302, 0.52142483, 0.0183378905, 0.0875651017,
          0.367730021, 0.384006083, 0.0231119785, 0.0220269095,
          0.00868055597, 0.012152778, 0.011284722, 0.0281032994,
          0.013888889, 0.018229166, 0.00835503452, 0.0029296875,
          0.00271267351, 0.0068359375, 0.00238715275, 0.273654521,
          0.356553823, 0.199978292, 0.0669487864, 0.0692274272,
          0.011501736, 0.00455729151, 0.00726996548, 0.00661892351,
          0.0030381945, 0.000651041686, 0., 0., 0., 0., 0. ]
      - [ 0.10600958, 0.111614309, 0.19048287, 0.191338584, 0.421314597,
          0.107341327, 0.430921912, 0.116279162, 0.50210458,
          0.00546922116, 0.532903135, 0.0339511186, 0.13292101,
          0.468207479, 0.291341156, 0.0111762155, 0.00846354198,
          0.0078125, 0.00607638899, 0.0078125, 0.019097222, 0.0144314235,
          0.00933159702, 0.0028211805, 0.001953125, 0.00336371525,
          0.011284722, 0.00390625, 0.223958328, 0.343967021, 0.144856766,
          0.0377604179, 0.0447048619, 0.0168185756, 0.0069444445,
          0.0274522565, 0.0687934011, 0.0553385429, 0.0211588535,
          0.0069444445, 0.00130208337, 0., 0., 0. ]
      - [ 0.106064051, 0.114448883, 0.194971234, 0.193527594,
          0.422217131, 0.109928392, 0.430794686, 0.118278027,
          0.502510965, 0.00540044298, 0.533550799, 0.0341220386,
          0.126410589, 0.491102427, 0.279730916, 0.012803819,
          0.005859375, 0.005967882, 0.00423177099, 0.00553385401,
          0.0179036465, 0.013020833, 0.012152778, 0.001844618,
          0.001953125, 0.0030381945, 0.0133463545, 0.00509982649,
          0.202256948, 0.371744782, 0.128472224, 0.0394965261,
          0.0469835065, 0.021050347, 0.007703993, 0.0274522565,
          0.0668402761, 0.0539279506, 0.0222439244, 0.00954861101,
          0.001953125, 0.000325520843, 0., 0. ]
      - [ 0.360605597, 0.0689039528, 0.487675726, 0.0576463789,
          0.625309348, 0.314873695, 0.521952033, 0.250877291,
          0.458870769, 0.0163864568, 0.439689726, 0.0576312505, 0., 0.,
          0., 0.0257161465, 0.0973307267, 0.0100911455, 0.00802951399,
          0.0463324636, 0.669704854, 0.142795146, 0., 0., 0., 0., 0., 0.,
          0., 0., 0., 0., 0.005750868, 0.0587022565, 0.0964626744,
          0.33604601, 0.453776032, 0.041015625, 0.00759548601,
          0.000542534748, 0., 0.000108506945, 0., 0. ]
      - [ 0.363519102, 0.0725635663, 0.487053633, 0.0557837449,
          0.617622375, 0.320850432, 0.506031275, 0.248571083,
          0.465716898, 0.0139907263, 0.434677541, 0.0609922297, 0., 0.,
          0., 0.0237630215, 0.110677086, 0.00889756903, 0.00455729151,
          0.0235460065, 0.467447907, 0.361111104, 0., 0., 0., 0., 0., 0.,
          0., 0., 0., 0., 0.0100911455, 0.0546875, 0.100043401,
          0.27354601, 0.538628459, 0.020616319, 0.002061632,
          0.000325520843, 0., 0., 0., 0. ]
      - [ 0.364615262, 0.07109458, 0.48780638, 0.0545219928, 0.632356763,
          0.319197983, 0.518695116, 0.248339325, 0.464526743,
          0.0144645208, 0.433140159, 0.0599040873, 0., 0., 0.,
          0.024305556, 0.104709201, 0.00813802052, 0.0030381945,
          0.0235460065, 0.494466156, 0.341796875, 0., 0., 0., 0., 0., 0.,
          0., 0., 0., 0.000108506945, 0.00629340298, 0.0547960065,
          0.0978732631, 0.288845479, 0.528211832, 0.0212673619,
          0.00260416674, 0., 0., 0., 0., 0. ]
      - [ 0.364843756, 0.0688821748, 0.488943368, 0.0528756306,
          0.640525877, 0.317611516, 0.528090119, 0.248220742,
          0.462135762, 0.0159694273, 0.433632463, 0.058840666, 0., 0.,
          0., 0.0185546875, 0.103732638, 0.00455729151, 0.00347222225,
          0.0289713535, 0.567165792, 0.27354601, 0., 0., 0., 0., 0., 0.,
          0., 0., 0., 0., 0.00358072924, 0.0515407994, 0.0936414897,
          0.314236104, 0.508138001, 0.0250651035, 0.003797743, 0., 0.,
          0., 0., 0. ]
      - [ 0.381956369, 0.0266240146, 0.470710784, 0.0653075874,
          0.313008487, 0.191054121, 0.260009438, 0.15995416, 0.480983615,
          0.0100576803, 0.461113244, 0.0316447951, 0., 0., 0., 0.,
          0.000108506945, 0.001953125, 0.0233289935, 0.0895182267,
          0.609592021, 0.275390625, 0.000108506945, 0., 0., 0., 0., 0.,
          0., 0.000108506945, 0.000651041686, 0.00173611112,
          0.0181206595, 0.0725911483, 0.165473089, 0.361219615,
          0.342339396, 0.0358072929, 0.001953125, 0., 0., 0., 0., 0. ]
      - [ 0.382517189, 0.0268620644, 0.474765539, 0.0635162368,
          0.305058539, 0.184090301, 0.253235221, 0.155433536, 0.48132658,
          0.00988044869, 0.461902559, 0.0304631386, 0.000108506945, 0.,
          0., 0.000325520843, 0.00119357638, 0.00151909725, 0.0187717006,
          0.0833333358, 0.617838562, 0.276692718, 0.000217013891, 0., 0.,
          0., 0., 0., 0., 0.000217013891, 0., 0.00119357638, 0.012803819,
          0.0706380233, 0.150607646, 0.348958343, 0.375976562,
          0.0361328125, 0.0029296875, 0.000542534748, 0., 0., 0., 0. ]
      - [ 0.380173862, 0.0286694411, 0.467990458, 0.0660605356,
          0.267653853, 0.168615088, 0.223180488, 0.145703122,
          0.482106984, 0.0100298841, 0.467987895, 0.0268933252, 0., 0.,
          0., 0., 0.000868055562, 0.0049913195, 0.0291883685,
          0.0805121511, 0.650716126, 0.233181417, 0.000542534748, 0., 0.,
          0., 0., 0., 0., 0.000217013891, 0.000217013891, 0.0030381945,
          0.018446181, 0.0705295131, 0.175021708, 0.384765625,
          0.310980916, 0.0307074655, 0.0049913195, 0.0010850695, 0., 0.,
          0., 0. ]
      - [ 0.378617764, 0.0277764909, 0.464823335, 0.0646654516,
          0.270952046, 0.171462387, 0.226342931, 0.146214917,
          0.481450856, 0.00985420123, 0.468210459, 0.0285919048, 0., 0.,
          0., 0., 0.000217013891, 0.00217013899, 0.026041666,
          0.109157987, 0.629231751, 0.233181417, 0., 0., 0., 0., 0., 0.,
          0., 0., 0.000325520843, 0.000542534748, 0.015625, 0.0792100728,
          0.202799484, 0.385633677, 0.275390625, 0.0361328125,
          0.00390625, 0.000434027781, 0., 0., 0., 0. ]
      - [ 0.359496713, 0.0963715091, 0.412367672, 0.0927644297,
          0.32523191, 0.156133905, 0.275064677, 0.121876076, 0.489546299,
          0.00997903198, 0.466948777, 0.0422785506, 0., 0.000542534748,
          0.0296223965, 0.105034724, 0.0336371511, 0.00640190952,
          0.00846354198, 0.017144097, 0.194552958, 0.602756083,
          0.00130208337, 0.000108506945, 0.000325520843, 0.000108506945,
          0., 0., 0.000651041686, 0.0030381945, 0.0087890625,
          0.0251736119, 0.0651041642, 0.197699651, 0.366427958,
          0.19932726, 0.0821397603, 0.022786459, 0.0166015625,
          0.00868055597, 0.00314670149, 0.000434027781, 0., 0. ]
      - [ 0.363573164, 0.0909157842, 0.41016987, 0.0859467611,
          0.32852158, 0.150600582, 0.280127048, 0.11900942, 0.488387614,
          0.00930243917, 0.467125803, 0.040124502, 0., 0., 0.0139973955,
          0.116536461, 0.020616319, 0.0030381945, 0.00705295149,
          0.018880209, 0.21875, 0.598632812, 0.00238715275, 0.,
          0.000108506945, 0., 0., 0., 0.000217013891, 0.000217013891,
          0.005967882, 0.021050347, 0.0587022565, 0.224609375,
          0.395507812, 0.167426214, 0.0773654506, 0.0232204869,
          0.016059028, 0.00835503452, 0.0010850695, 0.000217013891, 0.,
          0. ]
      - [ 0.368286192, 0.085329935, 0.406329572, 0.0808946267,
          0.333319277, 0.143111408, 0.285313278, 0.113312677,
          0.488219112, 0.00896013528, 0.4657152, 0.0378385633, 0.,
          0.000108506945, 0.0118272565, 0.0972222239, 0.0217013881,
          0.00368923601, 0.0069444445, 0.0176866315, 0.233615458,
          0.606770813, 0.000325520843, 0.000108506945, 0., 0., 0., 0.,
          0.000108506945, 0.000651041686, 0.00509982649, 0.0177951381,
          0.0593532994, 0.232204854, 0.419053823, 0.154947922,
          0.0681423619, 0.0236545131, 0.013454861, 0.00423177099,
          0.00119357638, 0.000108506945, 0., 0. ]
      - [ 0.367430896, 0.0867927596, 0.404898971, 0.0824807659,
          0.331847429, 0.144905403, 0.283888221, 0.11445199, 0.48847571,
          0.00909429323, 0.466143698, 0.0384038426, 0., 0., 0.0113932295,
          0.102322049, 0.020616319, 0.00444878452, 0.0068359375,
          0.0157335065, 0.229926214, 0.607964396, 0.000759548624, 0., 0.,
          0., 0., 0., 0.000108506945, 0.000434027781, 0.00423177099,
          0.0220269095, 0.0691189244, 0.231011286, 0.40625, 0.160807297,
          0.0649956614, 0.0211588535, 0.0126953125, 0.0049913195,
          0.001953125, 0.000217013891, 0., 0. ]
      - [ 0.367919803, 0.0838551819, 0.407239765, 0.0834652707,
          0.328149676, 0.139855355, 0.282012939, 0.111547418,
          0.487510204, 0.0087421108, 0.466894746, 0.03693901, 0.,
          0.000108506945, 0.0120442705, 0.0938585103, 0.021050347,
          0.00455729151, 0.0069444445, 0.0198567715, 0.26551649,
          0.575737834, 0.000325520843, 0., 0., 0., 0., 0., 0.,
          0.000108506945, 0.00358072924, 0.017578125, 0.0641276017,
          0.244357646, 0.399197042, 0.16026476, 0.0631510392,
          0.0236545131, 0.014539931, 0.00759548601, 0.00162760413,
          0.000217013891, 0., 0. ]
      - [ 0.355601937, 0.090876855, 0.409074157, 0.0953295603,
          0.288223803, 0.15866594, 0.244160622, 0.125441641, 0.48773402,
          0.00978615507, 0.472872823, 0.040659178, 0., 0.000217013891,
          0.0179036465, 0.102430552, 0.0368923619, 0.010633681,
          0.0185546875, 0.047960069, 0.270507812, 0.493055552,
          0.00173611112, 0., 0., 0.000108506945, 0., 0., 0.000108506945,
          0.00141059025, 0.00911458302, 0.0373263881, 0.0903862864,
          0.185546875, 0.334418416, 0.190212667, 0.0991753489,
          0.028862847, 0.015407986, 0.005967882, 0.00162760413,
          0.000434027781, 0., 0. ]
      - [ 0.365206301, 0.0849456564, 0.410181344, 0.082107462,
          0.319649547, 0.136424467, 0.274815738, 0.109052978,
          0.487025559, 0.00835602731, 0.467998117, 0.0361969285, 0.,
          0.000108506945, 0.0118272565, 0.0988498256, 0.020182291,
          0.00553385401, 0.007703993, 0.026258681, 0.283962667,
          0.545247376, 0.000325520843, 0., 0., 0., 0., 0., 0.,
          0.000325520843, 0.00444878452, 0.018229166, 0.059461806,
          0.210177958, 0.414822042, 0.180881083, 0.0657552108,
          0.0239800345, 0.0144314235, 0.00618489599, 0.00119357638,
          0.000108506945, 0., 0. ]
      - [ 0.366666228, 0.0857654214, 0.41437611, 0.0819913149,
          0.318555951, 0.136267066, 0.271930754, 0.109134279,
          0.487947643, 0.00859285425, 0.466916442, 0.036486458, 0., 0.,
          0.011501736, 0.101236977, 0.020833334, 0.00217013899,
          0.00726996548, 0.020833334, 0.254123271, 0.581488729,
          0.000542534748, 0., 0., 0., 0., 0., 0.000108506945,
          0.000217013891, 0.003797743, 0.016493056, 0.051649306,
          0.207356766, 0.4140625, 0.177842885, 0.0798611119,
          0.0261501744, 0.0148654515, 0.00640190952, 0.0010850695,
          0.000108506945, 0., 0. ]
      - [ 0.368427455, 0.0844802856, 0.412472755, 0.0804234892,
          0.322472841, 0.134718612, 0.275198728, 0.107837491,
          0.488260388, 0.00862476043, 0.466093481, 0.0361396149, 0., 0.,
          0.0103081595, 0.0981987864, 0.020616319, 0.00271267351,
          0.00857204851, 0.019097222, 0.234809026, 0.605143249,
          0.000542534748, 0., 0., 0., 0., 0., 0., 0.000434027781,
          0.00336371525, 0.0197482631, 0.0487196185, 0.208550349,
          0.427842885, 0.170464411, 0.0767144114, 0.0234375, 0.013671875,
          0.00607638899, 0.0009765625, 0., 0., 0. ]
      - [ 0.371108204, 0.0820449963, 0.412047684, 0.0760953948,
          0.326924622, 0.133765414, 0.278293937, 0.106764212,
          0.488590598, 0.00862850528, 0.464548856, 0.0356097929, 0.,
          0.000108506945, 0.00965711847, 0.0881076381, 0.0232204869,
          0.00336371525, 0.007703993, 0.0185546875, 0.225585938,
          0.623589396, 0.000108506945, 0., 0., 0., 0., 0., 0., 0.,
          0.00358072924, 0.0155164935, 0.0514322929, 0.196072042,
          0.434027791, 0.190104172, 0.0723741353, 0.022352431,
          0.010633681, 0.00336371525, 0.000542534748, 0., 0., 0. ]
      - [ 0.368390024, 0.085661307, 0.419004023, 0.0798237994,
          0.320474625, 0.13832891, 0.270765662, 0.109951921, 0.489044636,
          0.00917249918, 0.4649131, 0.0371585712, 0., 0.000108506945,
          0.00998263899, 0.0998263881, 0.0237630215, 0.00368923601,
          0.00661892351, 0.0213758685, 0.214626729, 0.619683146,
          0.000325520843, 0., 0., 0., 0., 0., 0., 0.000651041686,
          0.00249565975, 0.0168185756, 0.0463324636, 0.170572922,
          0.424479157, 0.206814229, 0.0851779506, 0.02734375,
          0.0126953125, 0.005859375, 0.000759548624, 0., 0., 0. ]
      - [ 0.35793972, 0.100150637, 0.419159353, 0.0905044004,
          0.314715236, 0.153285354, 0.260380059, 0.116378434,
          0.491903245, 0.010801279, 0.464651406, 0.0430591255,
          0.000108506945, 0.0009765625, 0.0272352435, 0.112087674,
          0.0425347239, 0.012803819, 0.0113932295, 0.013888889,
          0.144205734, 0.630967855, 0.00347222225, 0.000325520843, 0.,
          0., 0., 0., 0.000325520843, 0.0030381945, 0.013237847,
          0.02734375, 0.0584852435, 0.141927078, 0.34364149, 0.267686635,
          0.100802951, 0.023871528, 0.012586806, 0.005750868,
          0.0010850695, 0.000217013891, 0., 0. ]
      - [ 0.373206019, 0.092194207, 0.410864323, 0.0822334662,
          0.311026007, 0.144353375, 0.254336447, 0.112249471,
          0.495028257, 0.0099514937, 0.460681349, 0.0380065255,
          0.000651041686, 0.00173611112, 0.0235460065, 0.078125,
          0.0348307304, 0.010633681, 0.00726996548, 0.0100911455,
          0.0981987864, 0.725477457, 0.00889756903, 0., 0.000217013891,
          0.000217013891, 0.000108506945, 0., 0.000759548624,
          0.005859375, 0.0120442705, 0.028211806, 0.0544704869,
          0.13671875, 0.392361104, 0.271158844, 0.0774739608,
          0.014973958, 0.00434027798, 0.00130208337, 0.000325520843, 0.,
          0., 0. ]
      - [ 0.375197023, 0.0905381292, 0.411471516, 0.0902948678,
          0.309697956, 0.155378193, 0.251393139, 0.11827866, 0.495836735,
          0.010912369, 0.459928602, 0.0399806909, 0.0009765625,
          0.001953125, 0.0263671875, 0.0681423619, 0.0320095494,
          0.00998263899, 0.00813802052, 0.0122612845, 0.111979164,
          0.71495223, 0.013020833, 0.000217013891, 0., 0., 0., 0.,
          0.00119357638, 0.004014757, 0.016276041, 0.0336371511,
          0.0603298619, 0.154079854, 0.346462667, 0.254123271,
          0.0988498256, 0.0202907994, 0.00607638899, 0.00368923601,
          0.000868055562, 0.000108506945, 0., 0. ]
      - [ 0.374556184, 0.0877934173, 0.41314891, 0.0684124231,
          0.237119585, 0.0965763405, 0.190875635, 0.0792389885,
          0.495153785, 0.00639315508, 0.468619376, 0.0265066214, 0.,
          0.000434027781, 0.0113932295, 0.0861545131, 0.038194444,
          0.007703993, 0.00466579851, 0.00509982649, 0.0787760392,
          0.764322937, 0.00325520826, 0., 0., 0., 0., 0., 0.000217013891,
          0.00130208337, 0.00900607649, 0.021484375, 0.0445963554,
          0.115342885, 0.451605916, 0.284613729, 0.0645616353,
          0.00607638899, 0.0010850695, 0.000108506945, 0., 0., 0., 0. ]
      - [ 0.374556184, 0.0877934173, 0.41314891, 0.0684124231,
          0.237119585, 0.0965763405, 0.190875635, 0.0792389885,
          0.495153785, 0.00639315508, 0.468619376, 0.0265066214, 0.,
          0.000434027781, 0.0113932295, 0.0861545131, 0.038194444,
          0.007703993, 0.00466579851, 0.00509982649, 0.0787760392,
          0.764322937, 0.00325520826, 0., 0., 0., 0., 0., 0.000217013891,
          0.00130208337, 0.00900607649, 0.021484375, 0.0445963554,
          0.115342885, 0.451605916, 0.284613729, 0.0645616353,
          0.00607638899, 0.0010850695, 0.000108506945, 0., 0., 0., 0. ]
      - [ 0.372467309, 0.0921136662, 0.413194031, 0.0726927817,
          0.230738521, 0.0988749713, 0.183442265, 0.0805749297,
          0.496143967, 0.0066870586, 0.468919784, 0.0274516735,
          0.000217013891, 0., 0.0120442705, 0.0954861119, 0.0432942696,
          0.00846354198, 0.00564236101, 0.0047743055, 0.0608723946,
          0.76573348, 0.00347222225, 0., 0., 0., 0., 0., 0.000868055562,
          0.0030381945, 0.0109592015, 0.0220269095, 0.0500217006,
          0.106879339, 0.425347209, 0.3046875, 0.0692274272,
          0.00607638899, 0.000868055562, 0., 0., 0., 0., 0. ]
      - [ 0.372780085, 0.0921866149, 0.410356671, 0.0778159276,
          0.230016857, 0.100474074, 0.1821955, 0.0816090107, 0.496580124,
          0.00695826812, 0.468617231, 0.0277635958, 0.000108506945,
          0.000217013891, 0.013888889, 0.0862630233, 0.0503472239,
          0.0103081595, 0.00737847202, 0.00455729151, 0.0562065989,
          0.765190959, 0.00542534702, 0., 0., 0.000108506945, 0., 0.,
          0.0010850695, 0.00520833349, 0.0144314235, 0.0285373256,
          0.0509982631, 0.110460073, 0.403754354, 0.307291657,
          0.0730251744, 0.00444878452, 0.000759548624, 0., 0., 0., 0.,
          0. ]
      - [ 0.372780085, 0.0921866149, 0.410356671, 0.0778159276,
          0.230016857, 0.100474074, 0.1821955, 0.0816090107, 0.496580124,
          0.00695826812, 0.468617231, 0.0277635958, 0.000108506945,
          0.000217013891, 0.013888889, 0.0862630233, 0.0503472239,
          0.0103081595, 0.00737847202, 0.00455729151, 0.0562065989,
          0.765190959, 0.00542534702, 0., 0., 0.000108506945, 0., 0.,
          0.0010850695, 0.00520833349, 0.0144314235, 0.0285373256,
          0.0509982631, 0.110460073, 0.403754354, 0.307291657,
          0.0730251744, 0.00444878452, 0.000759548624, 0., 0., 0., 0.,
          0. ]
      - [ 0.373071551, 0.0900216699, 0.41416803, 0.0737763718,
          0.232981429, 0.0993196964, 0.186354086, 0.0812309086,
          0.495461017, 0.00672911434, 0.469072104, 0.027376825,
          0.000217013891, 0.000325520843, 0.013888889, 0.0873480886,
          0.0416666679, 0.00835503452, 0.005859375, 0.005859375,
          0.0792100728, 0.752278626, 0.0047743055, 0.000108506945,
          0.000108506945, 0., 0., 0., 0.000542534748, 0.00227864576,
          0.00965711847, 0.024088541, 0.0486111119, 0.118381076,
          0.400499135, 0.31629774, 0.0691189244, 0.00835503452,
          0.00162760413, 0.000542534748, 0., 0., 0., 0. ]
      - [ 0.373071551, 0.0900216699, 0.41416803, 0.0737763718,
          0.232981429, 0.0993196964, 0.186354086, 0.0812309086,
          0.495461017, 0.00672911434, 0.469072104, 0.027376825,
          0.000217013891, 0.000325520843, 0.013888889, 0.0873480886,
          0.0416666679, 0.00835503452, 0.005859375, 0.005859375,
          0.0792100728, 0.752278626, 0.0047743055, 0.000108506945,
          0.000108506945, 0., 0., 0., 0.000542534748, 0.00227864576,
          0.00965711847, 0.024088541, 0.0486111119, 0.118381076,
          0.400499135, 0.31629774, 0.0691189244, 0.00835503452,
          0.00162760413, 0.000542534748, 0., 0., 0., 0. ]
      - [ 0.372380078, 0.089692615, 0.413576573, 0.0721785724,
          0.233386949, 0.0995587781, 0.187336594, 0.0816187337,
          0.495129943, 0.00669796253, 0.469479322, 0.0274097081,
          0.000108506945, 0.000434027781, 0.0120442705, 0.0870225728,
          0.0454644114, 0.0078125, 0.00618489599, 0.005859375,
          0.0876736119, 0.744140625, 0.00314670149, 0., 0., 0.,
          0.000108506945, 0., 0.000759548624, 0.0010850695,
          0.00911458302, 0.021918403, 0.049913194, 0.123480901,
          0.423068583, 0.288736969, 0.0696614608, 0.0103081595,
          0.00162760413, 0.000325520843, 0., 0., 0., 0. ]
      - [ 0.372380078, 0.089692615, 0.413576573, 0.0721785724,
          0.233386949, 0.0995587781, 0.187336594, 0.0816187337,
          0.495129943, 0.00669796253, 0.469479322, 0.0274097081,
          0.000108506945, 0.000434027781, 0.0120442705, 0.0870225728,
          0.0454644114, 0.0078125, 0.00618489599, 0.005859375,
          0.0876736119, 0.744140625, 0.00314670149, 0., 0., 0.,
          0.000108506945, 0., 0.000759548624, 0.0010850695,
          0.00911458302, 0.021918403, 0.049913194, 0.123480901,
          0.423068583, 0.288736969, 0.0696614608, 0.0103081595,
          0.00162760413, 0.000325520843, 0., 0., 0., 0. ]
      - [ 0.101436548, 0.0623674504, 0.120875888, 0.0935243443,
          0.624799609, 0.104390554, 0.636422992, 0.0936678424,
          0.496903092, 0.0158387441, 0.529571772, 0.0176511556,
          0.0294053815, 0.53526473, 0.373372406, 0.00640190952,
          0.00260416674, 0.001844618, 0.0029296875, 0.0350477435,
          0.010633681, 0., 0.000868055562, 0.000217013891,
          0.000759548624, 0.000325520843, 0.000108506945, 0.000217013891,
          0.247178823, 0.329861104, 0.303602427, 0.0796440989,
          0.013888889, 0.00857204851, 0.001953125, 0.001844618,
          0.0029296875, 0.00130208337, 0.00119357638, 0.00260416674,
          0.00444878452, 0.0009765625, 0., 0. ]
      - [ 0.0973694548, 0.0613571778, 0.121600538, 0.0946683809,
          0.619591653, 0.102825031, 0.630493879, 0.0913961604,
          0.497695833, 0.0159304477, 0.529222846, 0.0178716555,
          0.0448133685, 0.568467855, 0.326931417, 0.005967882,
          0.00314670149, 0.00162760413, 0.003797743, 0.0368923619,
          0.00705295149, 0.000108506945, 0.000542534748, 0.000108506945,
          0.000217013891, 0.000108506945, 0., 0.000217013891,
          0.224283859, 0.355902791, 0.275282115, 0.103190102,
          0.014973958, 0.00868055597, 0.0030381945, 0.002061632,
          0.00227864576, 0.00173611112, 0.00130208337, 0.001953125,
          0.00444878452, 0.000868055562, 0., 0. ]
      - [ 0.097292006, 0.0614512078, 0.111580454, 0.0948776379,
          0.625496566, 0.103951462, 0.638534427, 0.0927683115,
          0.497054994, 0.0156736355, 0.527355671, 0.0179030914,
          0.0659722239, 0.501627624, 0.37489149, 0.0049913195,
          0.0028211805, 0.00217013899, 0.00249565975, 0.033203125,
          0.0111762155, 0.000217013891, 0.000217013891, 0., 0.,
          0.000108506945, 0.000108506945, 0., 0.309787333, 0.296549469,
          0.297743052, 0.0597873256, 0.0111762155, 0.00835503452,
          0.001953125, 0.00141059025, 0.001844618, 0.00271267351,
          0.001844618, 0.00227864576, 0.00336371525, 0.00119357638, 0.,
          0. ]
      - [ 0.0993893817, 0.0570933856, 0.111490674, 0.0915109739,
          0.62481916, 0.108545981, 0.63744086, 0.0960041657, 0.497280955,
          0.0155310128, 0.527326703, 0.0172137022, 0.0257161465,
          0.530924499, 0.387261271, 0.00629340298, 0.00314670149,
          0.00173611112, 0.00260416674, 0.0324435756, 0.00922309048,
          0.000325520843, 0.000217013891, 0., 0., 0., 0., 0.000108506945,
          0.317925334, 0.292317718, 0.299804688, 0.0553385429,
          0.011067708, 0.00748697901, 0.002061632, 0.001844618,
          0.00162760413, 0.002061632, 0.001953125, 0.002061632,
          0.003797743, 0.000651041686, 0., 0. ]
      - [ 0.100882947, 0.0749094412, 0.10533046, 0.0931735709,
          0.63829273, 0.105588831, 0.650587201, 0.092688702, 0.497861356,
          0.0156324096, 0.525749743, 0.017864231, 0.0534939244,
          0.508355021, 0.373806417, 0.00629340298, 0.00173611112,
          0.000868055562, 0.00271267351, 0.029947916, 0.0144314235,
          0.000434027781, 0.00141059025, 0.000325520843, 0.0010850695,
          0.00173611112, 0.0029296875, 0.000434027781, 0.386393219,
          0.237955734, 0.289496541, 0.0529513881, 0.00987413153,
          0.00716145849, 0.002061632, 0.00227864576, 0.001953125,
          0.002061632, 0.0010850695, 0.00227864576, 0.00390625,
          0.000542534748, 0., 0. ]
      - [ 0.0950074047, 0.0552674569, 0.118374266, 0.0839422122,
          0.605969608, 0.10451778, 0.616444528, 0.0926121399,
          0.499349803, 0.0136960773, 0.528090119, 0.0168708265,
          0.00846354198, 0.68760848, 0.246744797, 0.00911458302,
          0.00249565975, 0.00119357638, 0.00390625, 0.0343967006,
          0.00542534702, 0.000325520843, 0., 0., 0., 0., 0.000108506945,
          0.000217013891, 0.292317718, 0.302517354, 0.262803823,
          0.108289927, 0.014756944, 0.00390625, 0.00260416674,
          0.00217013899, 0.00217013899, 0.0029296875, 0.0029296875,
          0.00249565975, 0.000108506945, 0., 0., 0. ]
      - [ 0.0954916403, 0.0571042448, 0.11677134, 0.084962219,
          0.602729678, 0.103541538, 0.613824666, 0.0922904536,
          0.49925065, 0.0136318924, 0.527541161, 0.0169666912,
          0.0103081595, 0.680555582, 0.246636286, 0.0135633685,
          0.00271267351, 0.00151909725, 0.003797743, 0.032118056,
          0.00726996548, 0.000325520843, 0.000434027781, 0.,
          0.000108506945, 0.000108506945, 0.000217013891, 0.000325520843,
          0.296549469, 0.309461802, 0.254991323, 0.104058161,
          0.0152994795, 0.00434027798, 0.00217013899, 0.001953125,
          0.00314670149, 0.00227864576, 0.00238715275, 0.0030381945,
          0.000325520843, 0., 0., 0. ]
      - [ 0.108076319, 0.0628373101, 0.115260758, 0.0968893245,
          0.638027191, 0.110303909, 0.649890661, 0.0989312753,
          0.495815873, 0.0175001025, 0.527974367, 0.0166244544,
          0.00423177099, 0.486545146, 0.42176649, 0.0237630215,
          0.00368923601, 0.00227864576, 0.00444878452, 0.0366753489,
          0.0144314235, 0.000868055562, 0.000325520843, 0.,
          0.000108506945, 0.000434027781, 0.000217013891, 0.000217013891,
          0.333767354, 0.221245661, 0.373589396, 0.0326605886,
          0.011284722, 0.00705295149, 0.00368923601, 0.00151909725,
          0.00238715275, 0.00141059025, 0.00162760413, 0.00217013899,
          0.00423177099, 0.00336371525, 0., 0. ]
      - [ 0.125855297, 0.154186383, 0.166649222, 0.196512729,
          0.677355647, 0.140195891, 0.671144366, 0.13695769, 0.498400062,
          0.0358522385, 0.519748688, 0.0216439329, 0.149305552,
          0.644097209, 0.010416667, 0.00238715275, 0.001844618,
          0.00130208337, 0.00531684048, 0.0490451381, 0.0589192696,
          0.0146484375, 0.016276041, 0.00542534702, 0.00944010448,
          0.00922309048, 0.0133463545, 0.00900607649, 0.194010422,
          0.407769084, 0.181532115, 0.0848524272, 0.0259331595,
          0.013888889, 0.00954861101, 0.00933159702, 0.0111762155,
          0.00542534702, 0.00238715275, 0.00358072924, 0.00390625,
          0.0176866315, 0.0226779506, 0.00629340298 ]
      - [ 0.111375354, 0.125636578, 0.170033783, 0.197356656,
          0.673947275, 0.141940281, 0.668396413, 0.13871567, 0.497415841,
          0.0358991735, 0.521218002, 0.0215526968, 0.131944448,
